tree
version=v3
num_class=1
num_tree_per_iteration=1
label_index=0
max_feature_idx=7
objective=binary sigmoid:1
feature_names=0 1 2 3 4 5 6 7
feature_infos=[-5.0200819585738268:20.354644123134733] [-10.879483123836383:61.033131358708417] [-3.3971846848847305:21.189378123099523] [-4.3361270733209434:16.243321887593805] [-26.769794981577462:121.69950610704569] [-4.2540205743961605:5.8102167432757899] [-44.974396431510499:66.651091366216363] [-3.9499317975748349:3.7479146562845553]
tree_sizes=3363 3420 3433 3410 3443 3448 3441 3442 3461 3468 3459 3474 3456 3454 3465 3492 3490 3500 3487 3483 3497 3508 3508 3515 3502 3496 3520 3492 3483 3476 3499 3500 3514 3462 3516 3469 3524 3501 3497 3496 3492 3465 3505 3468 3526 3481 3511 3508 3443 3471 3501 3447 3471 3504 3494 3526 3531 3495 3519 3502 3473 3461 3464 3502 3499 3482 3492 3501 3521 3509 3459 3479 3428 3482 3504 3512 3503 3509 3470 3471 3495 3534 3407 3431 3488 3400 3380 3488 3450 3431 3454 3477 3490 3456 3504 3386 3443 3350 3417 3416 3479 3476 3452 3433 3354 3452 3460 3459 3448 3499 3429 3392 3474 3433 3429 3431 3434 3397 3407 3421 3400 3417 3421 3497 3410 3438 3464 3475 3461 3441 3432 3377 3384 3406 3356 3445 3433 3448 3483 3425 3423 3378 3403 3385 3464 3445 3429 3397 3428 3435 3438 3370 3460 3411 3407 3375 3436 3416 3372 3401 3413 3463 3436 3408 3486 3372 3394 3377 3401 3391 3411 3424 3427 3366

Tree=0
num_leaves=31
num_cat=0
split_feature=0 7 2 2 0 2 3 7 3 6 3 2 0 2 3 3 0 7 2 3 4 0 3 2 7 5 2 0 2 2
split_gain=2098.09 1888.21 551.14 401.728 394.183 999.31 470.72 345.355 284.386 215.742 180.109 158.725 386.612 1449.69 393.823 364.454 269.809 202.012 173.824 166.019 139.054 135.284 139.081 119.982 112.827 112.723 107.079 105.509 103.073 98.6704
threshold=-0.66978317251788566 1.4668373312895457 6.880426317626009 1.0319610897521636 -1.9574520320336128 2.5254448262275955 -0.53673411618491518 -2.1637887427468274 0.70849903586447927 0.047550453670061714 1.4250594758919204 -1.161761014784233 1.5324506609227369 1.3036345169955945 0.16861364498698381 2.1765806255114097 1.9142858106369138 0.52438702884458388 -0.17678755804055007 -1.2150737871908557 -0.031322919697672751 -1.3689546331485698 2.0338856537284205 0.16956491031174889 1.2231721170207046 0.4578115155660481 -0.84508888610248722 -1.250270264662048 4.720274876518773 2.9048419975433277
decision_type=2 2 2 2 2 2 2 2 2 2 2 2 2 2 2 2 2 2 2 2 2 2 2 2 2 2 2 2 2 2
left_child=3 7 10 21 29 6 -6 -2 -7 -10 -3 16 13 14 23 19 -9 25 -16 -15 -14 -1 24 -13 -23 -17 -24 -8 -12 -5
right_child=1 2 -4 4 5 8 27 11 9 -11 28 12 20 15 18 17 -18 -19 -20 -21 -22 22 26 -25 -26 -27 -28 -29 -30 -31
leaf_value=-3.2851234968748502 -3.0284909217955205 -2.7481920206984354 -2.2218576372524081 -3.2771147592704968 -3.2690662339403511 -3.1188870751231104 -3.2076588148024618 -3.2748202213497599 -2.7901530108668848 -3.2380252182582461 -3.1311794239313433 -3.2720720457774495 -3.2730521677445981 -3.1835003622036697 -3.2236771552594541 -2.6418166826594414 -3.2550573322155896 -3.162306440288392 -3.1464823929362287 -3.055775425936901 -3.2550030366666975 -3.2785468778708067 -3.2559107904911841 -3.2364951834640672 -3.2234383248196377 -3.2336593583514146 -3.1739290263777868 -3.1262477051649049 -2.8504748014273567 -3.2599529046483786
leaf_weight=11507.007462121546 16.038379602134228 8.3724580742418819 2.7554925307631484 3842.2163927033544 928.21238776668906 58.713187001645565 175.96292686834931 2895.139479149133 12.752984661608936 3.4620290771126738 11.799160324037077 688.51986441761255 1192.8456512019038 39.530719768255949 209.87668109312654 8.1604971103370154 4278.926632001996 3.4620290771126738 112.12734990566969 76.341273833066225 10105.415588300675 6584.9912656322122 243.75510849058628 360.79288739338517 93.722072873264551 0.95382433757186003 47.161314468830824 51.683148365467787 4.5571607239544383 1070.5088482014835
leaf_count=325730 454 237 78 108762 26275 1662 4981 81953 361 98 334 19490 33766 1119 5941 231 121124 98 3174 2161 286055 186402 6900 10213 2653 27 1335 1463 129 30303
internal_value=0 0.241527 8.45008 -0.194405 0.0271189 0.533068 0.302796 0.230029 4.05975 7.72765 6.67214 0.226241 0.292985 0.769959 0.468343 3.97572 0.107161 9.01971 1.43483 3.39186 0.229639 -0.268061 -0.158096 0.171214 -0.18759 11.3933 0.51819 1.58972 4.50994 -0.0996782
internal_weight=0 20015.6 27.4843 24620.1 6143.51 1230.79 1155.86 19988.1 74.9282 16.215 24.7288 19972.1 12798 1499.77 1371.32 128.448 7174.07 12.5764 322.004 115.872 11298.3 18476.6 6969.63 1049.31 6678.71 9.11432 290.916 227.646 16.3563 4912.73
internal_count=1263509 566584 778 696925 173905 34840 32719 565806 2121 459 700 565352 362275 42454 38818 3636 203077 356 9115 3280 319821 523020 197290 29703 189055 258 8235 6444 463 139065
shrinkage=1


Tree=1
num_leaves=31
num_cat=0
split_feature=0 7 2 0 2 7 2 2 0 2 0 0 0 4 2 0 7 5 0 2 7 4 1 6 7 2 7 1 2 4
split_gain=1887.05 1111.27 370.054 486.182 596.812 243.67 140.419 139.253 719.346 804.466 319.891 258.481 185.868 135.539 131.834 129.685 134.441 109.423 103.995 182.869 136.116 95.951 87.7171 82.7473 103.048 71.0231 67.0309 65.107 63.7908 55.986
threshold=-0.66978317251788566 1.4668373312895457 1.2742498454928153 -1.9574520320336128 2.9048419975433277 -2.1637887427468274 1.8211349387151676 -0.17678755804055007 1.6959369823072006 1.2742498454928153 1.9261225619743039 0.97634891222315934 -0.19389663013888075 -0.020384471024703463 2.5254448262275955 -1.3689546331485698 1.3096913063536859 -0.89857363049579153 -2.7124596871216333 3.4766899135170122 2.541961278440533 -0.0063147970151920304 -0.19877942483943206 -0.073898707486477491 1.8448216084048792 0.18468950323273828 -0.16191193831599318 -0.12568237872511975 -0.6992649891086592 0.012314035480755678
decision_type=2 2 2 2 2 2 2 2 2 2 2 2 2 2 2 2 2 2 2 2 2 2 2 2 2 2 2 2 2 2
left_child=2 5 15 18 6 -2 21 10 9 12 -7 17 -9 -10 -3 -1 25 29 -4 -20 -21 -5 -14 24 -6 -17 -23 -16 -18 -11
right_child=1 14 3 4 23 7 -8 8 13 11 -12 -13 22 -15 27 16 28 -19 19 20 -22 26 -24 -25 -26 -27 -28 -29 -30 -31
leaf_value=-0.015559092426541261 0.18315124589620602 0.12562619659893687 -0.0097817609047081075 0.060620029537448633 0.41314138994779653 -0.0034991331346670208 0.0660947634731964 0.022358844896796862 -0.00054026961183490871 0.25292715703557173 0.013098323019279743 0.35269817894165101 0.020165682332665202 0.015317171788515077 0.35078355148780099 -0.010716748392367276 -0.0029430736798048778 0.10778301450537107 0.0027411232930705711 0.20866602834447145 0.045567375496170924 -0.0029038932272454038 0.10964821159612786 0.15403340921727726 0.13427184680016885 0.0012636809441118493 0.055004553306751469 0.040022496489577383 0.073391489082924019 0.13623739817893932
leaf_weight=12291.306066211313 19.987311184406281 11.998786568641661 2685.5653165765107 91.17721351236105 7.923856280744074 4363.2886779010296 169.86870178207755 544.07084591314197 1952.5516708157957 25.279606971889734 8673.2093657776713 15.351766318082808 37.288823988288641 4348.0869281478226 26.399877931922674 5397.1655595228076 42.852069236338139 100.25702238827944 1466.1832095496356 16.484671015292406 53.619685851037502 391.82394811883569 105.41755511984229 45.183177452534437 6.6053798794746399 1604.7636019252241 56.7708720266819 1.9451570585370088 75.064254235476255 21.121545150876045
leaf_count=352997 454 273 76239 2454 151 123530 4556 14955 55122 554 242521 330 1023 121565 461 153983 1168 2444 41785 463 1506 11064 2801 1086 155 45732 1566 44 2020 507
internal_value=0 0.226426 -0.186529 0.0563174 0.78716 0.215887 0.530285 0.212383 0.324539 1.18849 0.150865 3.18957 0.714462 0.208067 5.43733 -0.248972 -0.141563 2.76246 -0.0769423 0.13054 1.70251 0.280169 1.72837 3.81019 5.90089 -0.159421 0.0895531 6.61042 0.915108 4.03659
internal_weight=0 20246.3 24402.4 4991.21 769.353 20205.9 709.641 20185.9 7149.43 848.787 13036.5 162.01 686.777 6300.64 40.3438 19411.2 7119.85 146.658 4221.85 1536.29 70.1044 539.772 142.706 59.7124 14.5292 7001.93 448.595 28.345 117.916 46.4012
internal_count=1263509 566584 696925 141025 21032 565806 19640 565352 199301 22614 366051 3835 18779 176687 778 555900 202903 3505 119993 43754 1969 15084 3824 1392 306 199715 12630 505 3188 1061
shrinkage=0.05


Tree=2
num_leaves=31
num_cat=0
split_feature=2 7 5 1 2 3 7 7 4 3 4 3 3 1 7 4 3 1 2 3 4 2 1 7 7 4 4 2 3 7
split_gain=360.745 396.593 226.812 210.666 166.115 155.887 607.782 159.042 160.975 151.674 112.923 123.592 95.2865 90.2348 76.0118 92.858 448.933 142.578 99.3092 69.7751 66.3104 65.6569 71.2557 77.319 63.601 63.0725 52.1408 375.539 86.5753 121.31
threshold=2.133261884305576 -0.72423775906903864 -0.79683653495245543 -0.063434006185659378 1.0319610897521636 -0.32510300498589384 1.3603855987215738 -1.3218465798470249 -0.029773563934706 0.12223806645522388 0.0053874684780462487 1.8782088934430246 3.7605741645229536 -0.27825019453732819 -1.3499261049834295 -0.036572174777600643 2.1765806255114097 -0.21852280954241363 2.9048419975433277 -0.88728390418122138 -0.027774600728391132 -2.0984516366237211 -0.1089850631570923 0.8889084950369821 1.5540508258011652 0.0092273018310169447 -0.037625737271391409 6.880426317626009 -0.2182150273574063 1.8448216084048792
decision_type=2 2 2 2 2 2 2 2 2 2 2 2 2 2 2 2 2 2 2 2 2 2 2 2 2 2 2 2 2 2
left_child=1 4 5 10 -1 -2 7 12 -9 -6 11 21 13 -7 15 18 19 -18 -4 -17 -21 -3 23 -23 -13 -8 -16 28 -28 -30
right_child=2 3 14 -5 9 6 25 8 -10 -11 -12 24 -14 -15 26 16 17 -19 -20 20 -22 22 -24 -25 -26 -27 27 -29 29 -31
leaf_value=-0.013347059706036613 0.0087980093910204702 0.009095846587280047 0.25014807207444228 -0.010217623064679757 7.3514272226642353e-05 0.54774949492794212 0.26327959037477749 -0.0082889405263923584 0.046675739708692529 0.060745112434919257 0.0071892367646265781 0.012545939531157613 0.060198547365744606 0.17462034684680847 -0.0095583233884034956 0.00037696572360466305 0.91344063309346568 0.17401603624149981 -0.016061953567505245 0.0069633731965603081 0.14798794393365153 0.0016227040029087913 -0.0086960119476097025 -0.0096605674623564917 0.066139447476209617 0.13412701386226697 0.0014479611640855167 0.38340830293432782 0.017061916889715596 0.10363467905046826
leaf_weight=7877.2802775688469 402.60738402605057 1539.6148928850889 3.2179483957588664 3502.7040080092847 1521.2222005240619 1.5420953370630766 30.775324057787657 195.0071334913373 418.93006584793329 109.99231848865747 9564.2740041278303 1333.9117153584957 19.294445618987083 14.547063380479811 488.95634717494249 32.444100987166166 1.546904504299164 1.3798977620899666 60.190288312733173 12.624343011528252 24.332613240927458 10302.110849317163 2959.5687941797078 1780.2192743718624 57.295167032629251 16.222537558525801 1726.5679161734879 6.1560472622513762 607.74281411990523 42.888065863400698
leaf_count=228190 11346 43184 68 100709 42747 31 492 5537 11240 2833 267343 37614 484 280 13872 879 44 29 1701 327 572 289578 84834 51113 1588 350 48523 73 16928 1000
internal_value=0 -0.028117 0.282886 0.0266211 -0.206797 0.671586 0.957823 0.704635 0.584491 0.0836389 0.0560041 0.00928846 2.75205 4.5163 0.140795 0.870669 1.64102 12.8216 -0.0140098 1.08117 2.01101 -0.014735 -0.0348687 -0.000802247 0.295522 4.41161 0.106158 0.167183 0.14615 0.456876
internal_weight=0 40548.2 4106.97 31039.7 9508.49 1098.93 696.319 649.321 613.937 1631.21 27537 17972.7 35.3836 16.0892 3008.05 135.736 72.3279 2.9268 63.4082 69.4011 36.957 16581.5 15041.9 12082.3 1391.21 46.9979 2872.31 2383.35 2377.2 650.631
internal_count=1263509 1149733 113776 875963 273770 29760 18414 17572 16777 45580 775254 507911 795 311 84016 3620 1851 73 1769 1778 899 468709 425525 340691 39202 842 80396 66524 66451 17928
shrinkage=0.05


Tree=3
num_leaves=31
num_cat=0
split_feature=0 7 2 0 3 2 2 7 0 2 0 2 3 0 0 3 7 3 2 1 2 3 5 3 0 5 0 2 3 3
split_gain=1617.37 585.099 320.493 323.158 597.317 325.03 153.948 148.734 123.663 119.294 281.448 675.163 313.142 215.844 116.409 141.258 111.713 102.878 102.729 88.7576 88.6087 83.1335 82.6383 72.1728 281.851 159.38 86.2878 77.6919 70.7203 70.3265
threshold=-0.66978317251788566 1.4668373312895457 1.0319610897521636 -2.3585806961155131 -0.58246637554562741 2.4521436389577724 2.6153964154077571 -2.0661515772114201 -1.6081578841205377 -1.161761014784233 1.5324506609227369 1.2742498454928153 0.16861364498698381 1.9142858106369138 -1.5759863218220314 2.3741553793958907 1.3603855987215738 -2.0108067859466456 0.16956491031174889 -0.28558911716123603 0.16956491031174889 3.28237385464787 1.4443237980818429 1.4023482189058309 3.0004863268248125 -0.91570255651272514 1.8451610102708653 2.133261884305576 -1.86207453455284 1.9712393380302997
decision_type=2 2 2 2 2 2 2 2 2 2 2 2 2 2 2 2 2 2 2 2 2 2 2 2 2 2 2 2 2 2
left_child=2 7 14 -4 6 8 -5 -2 -6 13 11 12 20 29 -1 16 -16 -13 -14 -8 -11 -19 -7 26 25 -25 27 -12 -22 -9
right_child=1 -3 3 4 5 22 19 9 -10 10 23 17 18 -15 15 -17 -18 21 -20 -21 28 -23 -24 24 -26 -27 -28 -29 -30 -31
leaf_value=-0.016186056979041557 0.11817834105116072 0.1665128109642722 -0.0074949101319527374 -0.0040451827238192828 0.028234410527457978 0.17156668879750225 0.1950424889671708 -0.0071284663842414893 0.083492592873978255 -0.003744511840595992 -0.012961875550277167 0.013233587687848653 0.045663556990654441 0.011520224990543521 -0.0097293366193935815 0.04725480195095344 0.0264902065063858 0.12406667198886752 0.10843696794508317 0.041648509192213336 -0.0063096393495686845 0.26548332424814558 0.05903519911060115 0.52311886672532315 -2.3464316739590554e-05 0.070659863847239948 0.01258912470868221 0.33430219479344192 0.040682913401334689 0.053112050680873449
leaf_weight=8956.3717508539557 31.150146950036287 59.286689627915621 3962.4894187822938 1485.536133415997 381.43263491988182 69.681437715888023 9.9159917049109918 2826.2065923660994 137.82987159490585 689.37466721981764 385.04171254113317 19.735314175486565 261.8112468868494 4397.3130335099995 8636.0943948104978 113.19436120614409 217.80371645092964 155.33491659164429 87.071694850921631 106.93662063777447 114.94269562140107 11.152741942554711 22.176279120147228 3.4554400928318501 1992.5885513722897 4.1917480900883666 9206.4329866804183 1.1179419644176949 262.41375007852912 48.798791263252497
leaf_count=263450 562 778 113108 41985 10584 1320 241 80555 3379 19490 10732 469 7003 121124 250357 3184 6029 3104 2074 2764 3092 162 524 83 55516 109 253311 22 7000 1398
internal_value=0 0.206428 -0.175389 0.0210645 0.327076 1.16781 0.00617446 0.197312 0.85936 0.193957 0.250635 0.643483 0.407573 0.0911121 -0.243082 -0.162525 -0.176738 2.43091 1.22926 1.10882 0.138385 2.68613 2.89732 0.196328 0.0235305 5.89328 0.232356 -0.230511 0.527592 -0.121938
internal_weight=0 20557.4 24099.5 6176 2213.51 611.12 1602.39 20498.1 519.263 20467 13194.7 1601.84 1415.61 7272.32 17923.5 8967.09 8853.9 186.223 348.883 116.853 1066.73 166.488 91.8577 11592.8 2000.24 7.64719 9592.59 386.16 377.356 2875.01
internal_count=1263509 566584 696925 173905 60797 15807 44990 565806 13963 565244 362167 42394 38659 203077 523020 259570 256386 3735 9077 3005 29582 3266 1844 319773 55708 192 264065 10754 10092 81953
shrinkage=0.05


Tree=4
num_leaves=31
num_cat=0
split_feature=2 7 5 1 2 3 7 3 3 7 4 4 3 7 4 3 2 2 1 7 3 7 3 3 6 4 2 3 7 2
split_gain=296.646 331.521 178.518 178.29 137.65 113.048 364.908 111.599 107.624 105.18 109.13 93.6925 109.522 58.2035 68.5197 152.481 69.2541 57.3593 59.1672 65.329 53.1551 49.4203 48.4892 47.0963 46.4301 45.7568 221.075 68.7521 93.4386 219.43
threshold=2.133261884305576 -0.72423775906903864 -0.79683653495245543 -0.063434006185659378 1.0319610897521636 -0.081080101526394333 0.49107088504404445 0.36935463020766407 0.96122003418519186 -1.3218465798470249 -0.029773563934706 0.0053874684780462487 1.8782088934430246 -1.3499261049834295 -0.04246317456660529 2.6955510063064598 2.9048419975433277 -2.0984516366237211 -0.1089850631570923 0.8889084950369821 -0.88728390418122138 1.4668373312895457 0.22791883347763947 3.7605741645229536 -0.033451889851368953 -0.037625737271391409 6.880426317626009 -0.2182150273574063 0.65230497968577239 3.3510998978284019
decision_type=2 2 2 2 2 2 2 2 2 2 2 2 2 2 2 2 2 2 2 2 2 2 2 2 2 2 2 2 2 2
left_child=1 4 5 11 -1 -2 9 -6 -8 23 -11 12 17 14 16 20 -4 22 19 -19 -16 -14 -3 -7 -21 -15 27 -27 -29 -30
right_child=2 3 13 -5 7 6 8 -9 -10 10 -12 -13 21 25 15 -17 -18 18 -20 24 -22 -23 -24 -25 -26 26 -28 28 29 -31
leaf_value=-0.012373184369940336 0.01013793505679776 -0.0034895324668471118 0.1915534881825145 -0.0095414995488405444 0.00051057094565060948 0.15674529119730563 0.068352137883236311 0.059279365781721029 0.17446160971160096 -0.0091844975309218896 0.037528094783679578 0.0064808875263904046 0.01147521013023148 -0.009232630808133321 1.0297926148735062e-05 0.35427739796781471 -0.019626844551474908 0.0013490967060778461 -0.0080921132817457133 0.049406495070203713 0.081803498626039736 0.052377149529675919 0.014931666415418491 0.049473267504805171 -0.010204133838689018 0.0013562029029305291 0.24898550709608269 0.0090570023976449584 0.022706266187770732 0.1597827581168228
leaf_weight=7691.9472150467336 457.97247009724379 554.46201640367508 3.677030559629201 3449.1569636873901 1564.1305691376328 20.462800268083811 42.178773585706949 84.680409763008356 57.835054915398359 190.97549019753933 360.67186646908522 9675.8755141571164 1334.422328568995 485.33272520452738 32.658866591751575 3.849281668663024 54.553323693573475 10352.655872814357 2920.4065173156559 32.808453712612391 50.198395248502493 77.739394314587116 1002.9390777423978 21.312639035284519 1724.1109358146787 1729.261815302074 8.9476705230772478 496.94193170592189 140.19528686627746 36.451075773686171
leaf_count=228190 12679 15593 57 100709 43659 290 942 1921 749 5463 9153 267343 37169 13872 879 55 1565 289578 84834 926 1064 2033 27591 484 50187 48523 73 13507 3727 694
internal_value=0 -0.0260435 0.253353 0.0235425 -0.191263 0.588637 0.843157 0.070918 2.60549 0.544194 0.427259 0.0502625 0.00760168 0.126373 0.743704 1.3046 -0.0954867 -0.0151616 -0.0340926 -0.00327842 0.99515 0.274892 0.167488 2.06501 -0.181545 0.0953667 0.151742 0.132732 0.403631 1.02726
internal_weight=0 40465.3 4193.48 31124.6 9340.76 1151.41 693.437 1648.81 100.014 593.423 551.647 27675.4 17999.5 3042.07 144.937 86.7065 58.2304 16587.4 15030 12109.6 82.8573 1412.16 1557.4 41.7754 1756.92 2897.13 2411.8 2402.85 673.588 176.646
internal_count=1263509 1149733 113776 875963 273770 29760 17081 45580 1691 15390 14616 775254 507911 84016 3620 1998 1622 468709 425525 340691 1943 39202 43184 774 51113 80396 66524 66451 17928 4421
shrinkage=0.05


Tree=5
num_leaves=31
num_cat=0
split_feature=0 7 2 0 3 0 2 3 0 2 3 0 7 3 2 2 2 3 2 0 3 4 7 2 3 3 3 2 2 3
split_gain=1401.85 298.03 295.253 412.111 346.314 209.363 517.622 195.286 192.244 387.482 145.266 114.228 125.672 125.788 109.143 90.3371 77.7841 209.568 75.7228 148.664 224.683 75.1045 79.1166 76.6428 70.8857 66.0751 65.8331 90.7636 64.8752 136.49
threshold=-0.58937103644295041 1.4668373312895457 1.2742498454928153 -2.0619545205430123 -0.58246637554562741 0.97634891222315934 0.60835802197634337 -1.5443922977296392 1.9142858106369138 0.52016758150090181 2.0338856537284205 -1.5759863218220314 1.1850063662556167 2.3741553793958907 2.6153964154077571 3.1103743148292389 0.041803977459781212 -0.4012024575164102 2.9048419975433277 -3.2640640123027591 -1.3935473648181997 -0.031322919697672751 -2.1637887427468274 6.880426317626009 1.5242309881712486 4.3822881461155552 1.0430598460155431 -1.1001012048643117 -0.9042333701400399 -0.048446648026607177
decision_type=2 2 2 2 2 2 2 2 2 2 2 2 2 2 2 2 2 2 2 2 2 2 2 2 2 2 2 2 2 2
left_child=2 5 11 18 14 6 10 -8 9 -7 28 -1 13 16 -5 -6 26 -18 -4 -20 -21 22 25 -23 -19 -10 -13 -28 -2 -30
right_child=1 -3 3 4 15 8 7 -9 21 -11 -12 12 -14 -15 -16 -17 17 24 19 20 -22 23 -24 -25 -26 -27 27 -29 29 -31
leaf_value=-0.014989976707870814 -0.006229321666185385 0.11308939796494732 -0.0086625508995905806 0.0058908477799889938 0.063441729853258327 -0.0060150446232022682 0.018070528557132117 0.099749808889874503 0.31716687011887401 0.164667013072021 0.078513540874278379 -0.015696643713513019 0.026704707322447358 0.043515478339693485 0.080125580587612891 0.13747007539064576 -0.0080429143699216037 0.025235108212619508 -0.0096739618534949796 0.0062838695645243475 0.083102083426410789 0.010735991564352808 -0.0033561418702847292 0.15135731725625617 0.13978797270456075 0.050717022908173565 -0.0091505399836927463 0.019174708292371789 0.0038401805442418268 0.052147430830659147
leaf_weight=9584.3627852499485 520.32242922857404 68.697593122720718 3011.7417593300343 637.1083855368197 255.15743747353554 2929.2833754010499 100.2347875572741 273.18740640953183 2.7861605063080761 33.133847180753946 75.456233724951744 4130.5298624224961 263.97547331824899 115.45276793837547 53.196381829679012 49.372979588806629 2317.9477539472282 452.48130155727267 601.65452895313501 340.06248422339559 131.74024124071002 14330.397849939764 1209.9145184792578 9.1992002427577955 13.453030623495577 8.860105387866497 2063.2065486907959 327.25246208161116 546.64637385308743 199.16445849463344
leaf_count=287341 14915 705 86378 17741 5670 83178 2539 5392 27 459 1914 121201 7078 3125 1156 711 67267 13113 17072 9509 3505 388081 34287 220 371 140 60621 9564 15163 5066
internal_value=0 0.18995 -0.165864 0.0485952 0.625596 0.182862 0.517081 1.55758 0.151905 -0.0815709 0.226995 -0.222404 -0.145795 -0.164874 0.233308 1.51299 -0.177765 -0.0378222 -0.0919766 0.136025 0.555978 0.196353 -0.0416566 0.21663 0.573778 2.49785 -0.2375 -0.105393 0.146353 0.335333
internal_weight=0 20307.3 24348.7 5080.03 994.835 20238.6 1715.01 373.422 18523.6 2962.42 1341.59 19268.7 9684.3 9420.32 690.305 304.53 9304.87 2783.88 4085.2 1073.46 471.803 15561.2 1221.56 14339.6 465.934 11.6463 6520.99 2390.46 1266.13 745.811
internal_count=1263509 552086 711423 141742 25278 551381 44989 7931 506392 83637 37058 569681 282340 275262 18897 6381 272137 80751 116464 30086 13014 422755 34454 388301 13484 167 191386 70185 35144 20229
shrinkage=0.05


Tree=6
num_leaves=31
num_cat=0
split_feature=0 2 0 3 7 0 2 3 0 2 3 2 0 2 3 3 3 2 2 0 3 0 4 2 0 2 3 0 0 0
split_gain=1264.12 270.332 361.551 288.626 243.645 180.788 420.737 183.273 171.477 307.229 115.96 113.959 108.719 112.633 276.787 99.1646 76.0534 68.6263 68.5857 131.731 161.996 68.7151 67.9376 162.622 280.865 67.3456 59.8713 54.5169 52.6536 49.078
threshold=-0.58937103644295041 1.2742498454928153 -2.0619545205430123 -1.0657068316502158 1.4668373312895457 0.97634891222315934 0.38220583789540474 -1.5443922977296392 1.9142858106369138 0.52016758150090181 2.0338856537284205 3.1103743148292389 -1.265887444187306 0.14032097983202915 -0.11270464388446165 1.9393897351916076 2.3173368346699381 1.8211349387151676 2.9048419975433277 -3.3899144231015899 -1.2336014857197171 -2.9508400299503355 -0.04246317456660529 6.880426317626009 7.8145162135438939 -1.9102433812178694 -0.88728390418122138 -1.1602116027358782 -0.37592283446632618 -2.2451727738334806
decision_type=2 2 2 2 2 2 2 2 2 2 2 2 2 2 2 2 2 2 2 2 2 2 2 2 2 2 2 2 2 2
left_child=1 12 18 -4 5 6 10 -8 9 -7 28 27 16 15 26 -14 29 -9 -3 -20 -21 -22 -10 -24 -25 -17 -15 -5 -2 -1
right_child=4 2 3 11 -6 8 7 17 22 -11 -12 -13 13 14 -16 25 -18 -19 19 20 21 -23 23 24 -26 -27 -28 -29 -30 -31
leaf_value=-0.019226553715905197 -0.0035531569972048296 -0.0082976488888952434 0.0051149929261262786 0.038527386792237266 0.098854965005866796 -0.0057471353551357849 0.012050932413434419 0.067033920004481301 -0.0066183660105178987 0.1365990276826913 0.068398608771405134 0.11798692408506557 -0.011020272625309708 -0.0063089896943352083 0.068717521715423738 -0.011713760742166901 0.0029589371130764454 0.1150333032969047 -0.011591079378230014 0.0076699268982148849 0.034739922065420106 0.10507856695007285 0.0096562395626144815 0.34332024814935558 0.033778379951661108 0.034712517429295278 0.019268665246919073 0.085977394899254031 0.018001694655575183 -0.012205489343508721
leaf_weight=3507.1601536534727 725.5040692910552 2987.6305886916816 569.04524187371135 310.41107769683003 74.565618384629488 2912.9938589446247 129.13218598812819 253.4776886664331 647.15148025378585 37.906344331800938 75.932627525180578 68.237792678177357 4451.2264613099396 1056.0622085295618 159.8573794066906 124.79753133282065 678.5757504478097 107.76092352345586 523.8654660731554 416.77027589455247 70.675189778208733 69.189925473183393 15016.609410528094 9.3124560415744764 29.472238406538963 207.41331531852484 291.52690748125315 75.455699149519205 464.21599039807916 8594.3089565932751
leaf_count=106662 20304 86378 15576 7335 705 83178 3262 5305 18503 459 1813 953 131502 30592 4191 3674 20426 1587 15005 11578 1890 1613 403399 92 761 5678 8390 1414 12718 258566
internal_value=0 -0.158929 0.0457836 0.577003 0.178751 0.172132 0.478842 1.26473 0.143247 -0.0779154 0.173975 1.17109 -0.21358 -0.105952 0.132372 -0.181063 -0.266553 1.62984 -0.0878745 0.127993 0.466528 1.39572 0.18481 0.198447 2.2305 0.345615 -0.0154125 0.958108 0.0972269 -0.28482
internal_weight=0 24162.2 5091.28 1023.15 20484 20409.5 1756.02 490.371 18653.4 2950.9 1265.65 454.105 19070.9 6290.88 1507.45 4783.44 12780 361.239 4068.13 1080.5 556.635 139.865 15702.5 15055.4 38.7847 332.211 1347.59 385.867 1189.72 12101.5
internal_count=1263509 711423 141742 25278 552086 551381 44989 10154 506392 83637 34835 9702 569681 184027 43173 140854 385654 6892 116464 30086 15081 3503 422755 404252 853 9352 38982 8749 33022 365228
shrinkage=0.05


Tree=7
num_leaves=31
num_cat=0
split_feature=0 2 0 3 7 0 2 0 2 3 2 3 3 3 0 0 3 2 2 0 3 0 7 6 2 0 3 4 2 0
split_gain=1140.23 254.821 247.204 218.581 202.105 156.797 348.594 156.898 259.422 122.763 115.054 113.689 100.735 99.8894 90.1595 84.7386 173.119 146.742 93.9142 79.3778 77.7598 66.3325 64.8655 60.07 58.3807 70.476 59.9947 58.2437 133.327 178.604
threshold=-0.58937103644295041 0.78247292398805079 -1.2355952478371572 -0.5669059892493945 1.4668373312895457 0.97634891222315934 0.60835802197634337 1.8323979797239747 0.52016758150090181 1.5242309881712486 4.720274876518773 -1.4148029573019534 2.0661948547279532 2.3173368346699381 -1.5759863218220314 -2.5555784778806956 -0.53673411618491518 1.7745955584111852 2.0206614457705281 -3.4602791542464275 -1.332560699015098 -2.7716286818322797 1.1850063662556167 0.080748022332348124 2.9048419975433277 -3.3899144231015899 -1.5443922977296392 -0.04246317456660529 6.880426317626009 7.8145162135438939
decision_type=2 2 2 2 2 2 2 2 2 2 2 2 2 2 2 2 2 2 2 2 2 2 2 2 2 2 2 2 2 2
left_child=1 13 9 -4 5 6 12 8 -7 10 15 -8 -2 14 -1 24 18 -18 -17 -12 -20 -11 -16 -19 -3 -26 -27 -9 -29 -30
right_child=4 2 3 -5 -6 7 11 27 -10 21 19 -13 -14 -15 22 16 17 23 20 -21 -22 -23 -24 -25 25 26 -28 28 29 -31
leaf_value=-0.016189660598509164 0.0065528186884609794 -0.013289879419251562 0.012861275373759667 0.079931709422505742 0.087529072500411476 -0.010580911557508888 0.019917507823755475 -0.0064985303066021063 0.11625272862802312 0.0086246321946512657 -0.011112459472151866 0.077854808460044556 0.063912586758266374 0.0066566310930495842 -0.009261151182577405 -0.011634398624349273 0.0092149806826581117 0.080302949819395647 -0.0016307312327362542 0.14036145939265041 0.042282487437457772 0.087108080410633615 0.018021977745928966 0.025234272191272129 -0.011451242306655998 0.0014351972293050583 0.039750334073060868 0.0085646406959067802 0.25688141618885141 0.031130192382128982
leaf_weight=7003.5629127919674 1289.5168140642345 2618.9939774461091 498.47707711532712 160.23158542439342 79.917898837476969 1694.2784241139889 117.53992292657495 646.72427786514163 40.800260812044144 51.226246867328882 13.636871516704558 306.27364660799503 80.888105373829603 753.89008809253573 8418.7322203405201 1725.9610201232135 863.0843435972929 114.42974420264363 276.9128383398056 22.823175624012947 157.98741695284843 56.52939835563302 223.19272829592228 88.144921444356441 503.76784624159336 267.96219805628061 164.66489746421576 16352.053992431611 11.907187059521673 30.397959776222706
leaf_count=216737 35269 77402 14086 2910 705 48762 2829 18606 439 1523 396 5102 1789 22222 250800 50342 24821 2374 7537 425 4047 1359 5937 2189 14584 7498 4234 437732 92 761
internal_value=0 -0.152236 -0.000671354 0.58449 0.168317 0.162128 0.444525 0.135131 -0.151316 -0.0563612 -0.0731309 1.23658 0.199211 -0.222333 -0.239466 -0.0827142 0.0346234 0.364373 -0.128044 1.68646 0.28704 1.0002 -0.17111 1.12925 -0.189188 0.0251077 0.320952 0.1643 0.175912 1.93857
internal_weight=0 23984.2 7584.83 658.709 20650.3 20570.4 1794.22 18776.2 1735.08 6926.12 6818.37 423.814 1370.4 16399.4 15645.5 6781.91 3226.52 1065.66 2160.86 36.46 434.9 107.756 8641.92 202.575 3555.39 936.395 432.627 17041.1 16394.4 42.3051
internal_count=1263509 711423 215727 16996 552086 551381 44989 506392 49201 198731 195849 7931 37058 495696 473474 195028 91310 29384 61926 821 11584 2882 256737 4563 103718 26316 11732 457191 438585 853
shrinkage=0.05


Tree=8
num_leaves=31
num_cat=0
split_feature=0 2 0 3 2 0 3 0 3 2 3 5 4 0 2 3 0 3 2 2 2 2 0 3 3 2 1 2 2 2
split_gain=1035.25 216.953 213.883 191.912 173.249 448.435 461.417 213.019 136.759 95.0823 88.2395 88.0542 81.8683 74.6884 67.3301 171.937 93.7098 62.3075 83.6348 58.9957 58.291 57.271 106.282 138.042 54.9971 103.1 54.0929 53.2218 53.0447 51.63
threshold=-0.87408314482869842 1.2742498454928153 -2.0619545205430123 -1.0657068316502158 0.16956491031174889 2.2733322256297277 -0.12878621660598125 1.9142858106369138 1.9712393380302997 1.162378731832781 2.3173368346699381 0.5888244477973138 -0.018829079632909165 -2.2451727738334806 0.041803977459781212 0.46314353601568536 -1.9393231336815953 1.2639219870224701 -0.72676235044946791 3.1103743148292389 5.4722194127931978 2.9048419975433277 -3.2640640123027591 -1.5894101944771923 0.09166388893971085 -0.9042333701400399 -0.19431474997530532 4.720274876518773 2.3151649365274891 -0.43336335152806754
decision_type=2 2 2 2 2 2 2 2 2 2 2 2 2 2 2 2 2 2 2 2 2 2 2 2 2 2 2 2 2 2
left_child=1 10 21 28 7 6 9 8 24 -6 13 27 -7 -1 17 -16 -17 -15 -19 -5 -14 -3 -23 -24 -2 -26 -22 -8 -4 -12
right_child=4 2 3 19 5 12 11 -9 -10 -11 29 -13 20 14 15 16 -18 18 -20 -21 26 22 23 -25 25 -27 -28 -29 -30 -31
leaf_value=-0.018170575074470795 -0.0082512665143565297 -0.0076312684733122263 -0.0034900735789676549 0.038550985335648616 0.010506158466718138 -0.00072986081818995972 0.084492626846535385 0.0086068590852048429 0.04040656842484127 0.049089344059971479 -0.00020835021664517527 0.041865865402457139 0.011695410587923805 -0.016085347531717496 -0.0085571265683682153 -0.0016468975832774791 0.039978190115879518 -0.010178541061339454 0.015011869030874753 0.08927522407678562 0.15245733218802329 -0.0086561017401273824 0.0019233019380333089 0.055715074283306645 -0.0028608200119184355 0.028862190877577173 -0.033194952030777124 0.14213599821709552 0.049351433369820293 0.033900731298506431
leaf_weight=3402.5653665103018 3674.3359892703593 2944.46502334252 475.9087630584836 374.44180997088552 731.24635434895754 1981.6852350272238 300.00069035589695 10730.685900948942 172.93620105460286 203.94416173174977 613.21661551296711 115.37396248802543 3155.2506633624434 4910.172834482044 4202.7576286718249 245.63650164753199 300.1708723641932 2389.3100654743612 381.74515504390001 67.752111483365297 13.142581459134819 588.08939940854907 309.88354635238647 193.42858930677176 1599.0088128894567 304.45871398225427 5.28846102207899 47.421626418828964 52.252725049853325 134.94750956818461
leaf_count=106662 106055 86378 13329 8118 19576 54197 4380 283596 4242 4108 18157 1937 82713 150599 126944 7634 8656 72780 11638 846 282 17072 8533 4481 47020 8160 85 348 1161 3822
internal_value=0 -0.161188 0.0212567 0.442668 0.143605 0.281133 0.783368 0.0889139 -0.0663795 0.37884 -0.216273 1.59952 0.144879 -0.232131 -0.196181 -0.102559 0.425215 -0.254048 -0.134124 0.928298 0.244445 -0.0801067 0.11552 0.452617 -0.0935631 0.0443901 1.99436 1.85107 0.0355888 0.11925
internal_weight=0 21586.7 5006.22 970.355 23034.8 6553.35 1397.99 16481.4 5750.74 935.191 16580.5 462.796 5155.37 15832.4 12429.8 4748.57 545.807 7681.23 2771.06 442.194 3173.68 4035.87 1091.4 503.312 5577.8 1903.47 18.431 347.422 528.161 748.164
internal_count=1263509 646810 139918 23454 616699 167626 30349 449073 165477 23684 506892 6665 137277 484913 378251 143234 16290 235017 84418 8964 83080 116464 30086 13014 161235 55180 367 4728 14490 21979
shrinkage=0.05


Tree=9
num_leaves=31
num_cat=0
split_feature=0 2 0 3 0 2 0 2 3 3 2 0 3 3 0 3 5 2 2 3 0 2 3 7 0 2 2 7 0 0
split_gain=936.62 220.037 207.898 166.475 155.751 292.61 124.106 203 120.16 106.029 94.2969 104.512 90.9762 81.1527 68.6678 121.783 122.094 79.5306 68.6857 63.8671 63.4835 65.563 181.088 63.4391 61.3807 137.648 60.5146 54.4856 53.2805 50.8235
threshold=-0.58937103644295041 0.76232522386265134 -1.2355952478371572 -1.6138260808181271 0.97634891222315934 0.16956491031174889 1.8323979797239747 0.52016758150090181 -1.4148029573019534 1.5242309881712486 4.2930401092097075 -3.210812411241788 1.6488281788946473 1.9712393380302997 -2.7124596871216333 -0.53673411618491518 -0.69735148960387705 1.8211349387151676 2.0206614457705281 -1.6138260808181271 -1.4147056176284645 -0.29872860634156745 -0.016724773270983977 1.6300685205497731 -1.5759863218220314 -1.1001012048643117 2.8052572506098064 1.5540508258011652 1.0000000180025095e-35 -2.7716286818322797
decision_type=2 2 2 2 2 2 2 2 2 2 2 2 2 2 2 2 2 2 2 2 2 2 2 2 2 2 2 2 2 2
left_child=1 12 9 -4 5 13 7 -6 -7 10 14 -12 20 -2 -3 18 -17 -18 -16 -20 -1 -22 -23 24 -14 -26 -21 -8 -10 -11
right_child=4 2 3 -5 6 8 27 -9 28 29 11 -13 23 -15 15 16 17 -19 19 26 21 22 -24 -25 25 -27 -28 -29 -30 -31
leaf_value=-0.015720646016050461 0.001840361126811373 -0.0099879112785858891 0.0029235252865629246 0.051484002695981107 -0.0098543997185553539 0.011177054718018191 0.0073402948941811196 0.085079154073385954 0.045245171503398234 0.0081146728029987403 -0.0013879320989208322 0.098481108754123664 -0.009544196271864586 0.049527693364740832 -0.011358578576618511 0.039197470711628352 -0.00243595904009652 0.032426029351006733 -0.0095437663066774009 0.010475926418471608 -0.013147157980218316 -0.0080511385216963452 0.029211057433093497 0.042297130910787663 -0.0027908719257481963 0.041489723097752118 0.060185198840702669 0.1099362859899906 0.07747983961140234 0.074134819645786332
leaf_weight=6513.9678895771503 1092.00070630759 2922.4432474188507 375.56362338364124 332.56948092207313 1666.2891962714493 186.51366331800818 17282.815460309386 57.78289582580328 337.61495424807072 53.338684324175119 58.479179315268993 46.934570733457804 1978.7372368276119 96.656582172960043 1839.2227743323892 316.41563225723803 893.2331547755748 199.75974840298295 271.07660951092839 234.4951486736536 3480.7136450186372 2277.1497895643115 380.03559485077858 75.087632149457932 1060.0098818875849 209.81357127428055 82.499588120728731 12.453110761940478 210.15482220798731 64.14857043325901
leaf_count=206013 30301 86544 10574 7084 48762 4467 457194 505 5938 1590 1708 860 61621 2057 54611 8464 26147 4714 7452 6483 105973 68278 10796 2097 31678 5588 1736 72 2790 1412
internal_value=0 -0.140072 -0.00109304 0.514997 0.150271 0.421457 0.122842 -0.132978 0.917545 -0.053469 -0.0696195 0.866658 -0.206971 0.114746 -0.0842844 0.00368738 0.237446 0.0789494 -0.132065 0.165325 -0.245648 -0.172651 -0.0543467 -0.0597265 -0.0807872 0.0907817 0.469749 0.148347 1.15343 0.886468
internal_weight=0 23665.7 7690.18 708.133 20942.3 1922.94 19019.3 1724.07 734.283 6982.05 6864.56 105.414 15975.5 1188.66 6759.15 3836.7 1409.41 1092.99 2427.29 588.071 12651.9 6137.9 2657.19 3323.65 3248.56 1269.82 316.995 17295.3 547.77 117.487
internal_count=1263509 711423 219379 17658 552086 45553 506533 49267 13195 201721 198719 2568 492044 32358 196151 109607 39325 30861 70282 15671 391060 185047 79074 100984 98887 37266 8219 457266 8728 3002
shrinkage=0.05


Tree=10
num_leaves=31
num_cat=0
split_feature=0 2 0 2 0 3 0 3 4 3 5 3 2 0 3 0 0 3 0 3 2 3 2 2 3 4 2 0 3 5
split_gain=859.568 191.414 218.613 146.881 447.68 238.533 167.381 118.789 79.1008 78.406 77.8257 77.2305 79.7963 91.115 233.412 99.2681 65.9253 88.9946 58.7081 54.5684 54.2183 51.9969 49.5645 49.4782 168.781 48.0137 47.5994 46.6632 42.7884 41.9943
threshold=-0.90887604933472632 2.3825453943156529 -2.3388147017213989 0.4677030183988779 2.4359764382749174 -0.12878621660598125 1.9261225619743039 1.9712393380302997 -0.0034425947275591451 -1.9486160923887963 0.60367966322742561 2.2659706951714864 0.58970998727476887 -2.3388147017213989 -0.5983955438159001 -1.6896905524244723 -3.4602791542464275 -0.55158058901793794 -1.5925235256191166 -1.332560699015098 -0.48959506173608852 0.46314353601568536 3.4766899135170122 -0.2721332037090663 -0.30989198790909595 -0.0013291336991520554 1.4342817801977257 1.5924280265110193 1.9712393380302997 1.7178108041292124
decision_type=2 2 2 2 2 2 2 2 2 2 2 2 2 2 2 2 2 2 2 2 2 2 2 2 2 2 2 2 2 2
left_child=1 11 16 6 5 9 7 23 -6 -5 27 12 18 -14 -15 25 -3 22 -1 -4 -13 -17 -18 -2 -25 28 -27 -7 -16 -19
right_child=3 2 19 4 8 10 -8 -9 -10 -11 -12 20 13 14 15 21 17 29 -20 -21 -22 -23 -24 24 -26 26 -28 -29 -30 -31
leaf_value=-0.015637990555387941 -0.0052718299100603973 -0.012145843535140661 0.015666784085590687 0.00050557179642637831 0.0012994157857876337 0.07454633579386849 0.0079427705844015827 0.034897566913517662 0.015449705456876168 0.035356195785120954 0.031366958141766793 -0.00079074642954903647 -0.011509665051766149 -0.0088902593315551576 0.00041852572608355412 0.028260063601343945 -0.0054545768213779388 0.064218219175059585 -0.0085710152679873228 0.060694632767293068 0.029820903378661046 0.070803154276128308 0.022614037291805549 -0.0038269980829587591 0.045473622911663326 0.017719072459237518 0.075949875893377219 0.1405067880167285 0.12984271466202332 0.01283560769291976
leaf_weight=5802.3291969802231 5260.3500949107111 645.70354561135173 99.911590673029423 253.02224383503199 2803.3274513967335 327.66357373073697 11637.216233704239 209.76374505460262 1524.406278334558 445.19047528132796 106.89782553166151 699.92726798169315 2971.9138639904559 2254.195704812184 584.27292822487652 229.5756595376879 614.51871176809072 92.370205387473106 5959.8348615597934 208.3472497574985 181.82010227255523 104.93495719507337 210.82218729332089 813.4449407607317 220.18414947763085 185.31729359924793 42.951442405581474 29.576286230236292 5.9567022118717423 70.072862520813942
leaf_count=186734 153500 19236 2456 6737 74777 3775 302995 4807 39225 9832 1551 21015 90898 67051 17137 5837 17410 2282 182644 3205 4965 2254 5682 23259 5443 5464 1014 239 144 1941
internal_value=0 -0.147736 0.151313 0.130424 0.27373 0.824597 0.0870486 -0.0414384 0.125699 0.454725 1.37992 -0.178265 -0.192312 -0.102243 0.00937869 0.375252 0.00545045 0.167846 -0.241154 0.922988 0.110697 0.833829 0.0344904 -0.066134 0.133839 0.187442 0.576359 1.60392 0.0366698 0.843215
internal_weight=0 20964.8 1941.75 23631 5490.08 1162.35 18141 6503.74 4327.73 698.213 464.138 19023 18141.3 6379.12 3407.2 1153.01 1633.49 987.784 11762.2 308.259 881.747 334.511 825.341 6293.98 1033.63 818.498 228.269 357.24 590.23 162.443
internal_count=1263509 637369 52212 626140 136136 22134 490004 187009 114002 16569 5565 585157 559177 189799 98901 31850 46551 27315 369378 5661 25980 8091 23092 182202 28702 23759 6478 4014 17281 4223
shrinkage=0.05


Tree=11
num_leaves=31
num_cat=0
split_feature=0 2 0 7 3 2 0 3 0 3 3 2 0 2 2 3 0 3 4 4 2 5 3 1 0 7 2 3 2 3
split_gain=776.673 176.136 173.86 146.289 135.616 100.839 317.676 204.479 153.691 106.413 75.5443 71.6291 113.682 54.2815 53.724 100.865 55.1192 52.0385 51.369 50.2695 47.2148 45.3175 70.3297 43.5549 43.3191 69.9771 51.0792 101.785 42.9585 135.452
threshold=-0.90887604933472632 1.2742498454928153 -2.0619545205430123 1.5107673929927723 -1.0657068316502158 0.4677030183988779 3.0868026671870581 -0.12878621660598125 1.9142858106369138 1.9712393380302997 1.6488281788946473 -0.48959506173608852 -2.0619545205430123 4.720274876518773 3.3510998978284019 -0.75622107337909072 -3.3899144231015899 -1.9486160923887963 -0.018373384677710766 -0.0097504955919426768 3.0069160015286358 -0.72925523629679867 0.65808162645095358 -0.19877942483943206 -1.656810236028059 1.3096913063536859 -0.29872860634156745 -0.016724773270983977 -0.2721332037090663 -0.52123176867013077
decision_type=2 2 2 2 2 2 2 2 2 2 2 2 2 2 2 2 2 2 2 2 2 2 2 2 2 2 2 2 2 2
left_child=1 10 14 5 -4 8 7 17 9 28 24 -12 -13 23 21 16 -16 -7 -8 -15 -6 22 -3 -9 -1 26 -26 -28 -2 -30
right_child=3 2 4 -5 20 6 18 13 -10 -11 11 12 -14 19 15 -17 -18 -19 -20 -21 -22 -23 -24 -25 25 -27 27 -29 29 -31
leaf_value=-0.014286835326827382 -0.0053564520711449938 0.0008779439240861024 0.0020516486154215584 0.058709234890129913 0.031356779500155085 0.0098411606672811625 -0.0013670168114526275 0.028337960380000627 0.0074177722307293891 0.032424399789527159 -0.0064256336008539127 3.8559184319827618e-05 0.049301807903759078 0.10713266074786892 -0.011653591412986995 0.067163698954290557 0.019751464061296017 0.032192770857884447 0.0099642076764603939 0.34213607439300886 0.07161660567948426 -0.0097133236468336399 0.083750801477532222 0.068862309492212462 -0.014399590761325687 0.017873275273377457 -0.0090581432988685612 0.01488418127973115 -0.0055666825763891941 0.034683111654824357
leaf_weight=6315.0548815056682 5052.4303776025772 928.59919560700655 517.10262214392424 131.18986442312598 388.84991428628564 533.54754829406738 1882.3848996460438 90.483386971056461 11909.014910999686 213.35196991637349 2449.9392921235412 456.74557464756072 156.98669102042913 24.110502239316705 301.65599327534437 67.953564204275608 259.39913252741098 509.35421011224389 2133.4481900967658 2.1990806385874739 89.788168542087078 2403.0366295054555 25.826996196061373 258.6678380779922 2859.7155927699059 242.33153382502496 2830.8945565838367 525.97529376856983 736.23925347998738 291.33832930400968
leaf_count=204370 148684 27338 14282 1179 7920 13911 51169 1222 307935 4755 75945 14139 4136 186 9066 1435 6796 11132 54275 22 960 71053 706 3259 90154 6586 86861 15622 21146 7265
internal_value=0 -0.141428 0.0225616 0.12311 0.396226 0.117252 0.236788 0.643536 0.0815596 -0.0448408 -0.193015 -0.0519789 0.25339 1.27594 -0.0708104 0.19729 0.0574186 0.415358 0.0930658 2.6558 0.77952 -0.12106 0.0632636 1.16832 -0.226837 -0.169231 -0.18979 -0.106101 -0.0692216 0.117125
internal_weight=0 20819.9 4982.21 23767.8 995.741 23636.6 5434.2 1418.36 18202.4 6293.36 15837.6 3063.67 613.732 375.461 3986.47 629.009 561.055 1042.9 4015.83 26.3096 478.638 3357.46 954.426 349.151 12774 6458.92 6216.59 3356.87 6080.01 1027.58
internal_count=1263509 637369 139556 626140 23162 624961 135176 29732 489785 181850 497813 94220 18275 4689 116394 17297 15862 25043 105444 208 8880 99097 28044 4481 403593 199223 192637 102483 177095 28411
shrinkage=0.05


Tree=12
num_leaves=31
num_cat=0
split_feature=2 7 5 1 2 3 3 4 3 3 7 4 7 7 1 6 6 6 7 7 7 1 4 2 2 2 3 4 6 3
split_gain=156.921 191.902 100.53 95.1859 61.4337 73.6416 58.1436 55.8328 86.9772 46.4036 92.8904 48.0046 48.1725 42.6969 61.9933 40.5374 37.6438 36.3274 37.6507 48.6616 36.0705 99.6585 55.089 65.5099 48.934 46.5489 54.0689 58.1843 46.1888 41.3894
threshold=1.8211349387151676 -0.64824020692161521 -0.64694730489956054 -0.054285137070210966 0.70267479694726098 0.24347313348529967 1.9079439907218512 0.0087067455162258885 0.67578982477663818 -0.52123176867013077 1.3603855987215738 -0.029773563934706 -1.6567302650851918 -0.36340553466182829 -0.22044286118516751 -0.091735294571874834 -0.10783683197742061 -0.14906974721277105 -0.48574200134736883 -0.6219602224795866 -0.64824020692161521 -0.28558911716123603 -0.037625737271391409 6.880426317626009 2.4521436389577724 3.2202371509190999 -1.0288757205918471 -0.030743534236589508 -0.032639006003995739 -2.4784820213069811
decision_type=2 2 2 2 2 2 2 2 2 2 2 2 2 2 2 2 2 2 2 2 2 2 2 2 2 2 2 2 2 2
left_child=1 4 9 6 -1 -6 7 -3 -9 -2 11 12 15 14 17 -11 -7 18 19 -13 22 29 24 -24 -4 -23 -27 -28 -25 -22
right_child=2 3 20 -5 5 16 -8 8 -10 10 -12 13 -14 -15 -16 -17 -18 -19 -20 -21 21 25 23 28 -26 26 27 -29 -30 -31
leaf_value=-0.0099521380119727137 0.0061777878981391851 -0.0005453026575451416 0.082576906339425521 -0.009447667096880559 -0.0035898187643134596 0.069476569358194129 0.01132172189153662 0.004036204151707602 0.078454598864566391 0.022499986449456683 0.060866106032713911 0.028971538789714753 -0.0081181467351284509 0.01729795244615262 0.073102547085068012 0.16949684488672578 0.016459657458396428 0.0029745218955329385 -0.038687394607628385 0.20507438469230121 -0.025634470210606941 -0.0055219244016332823 0.017292595252474233 0.21328313394399989 -0.012263235684070522 -0.0011382669302325496 -7.7456125837580643e-05 0.043045240159896928 -0.042758264288457276 0.076067173704999727
leaf_weight=6664.8297248166054 577.39454226195812 17517.211671087891 13.850204680114983 2090.9606586676091 2509.7602636478841 39.938303066417575 1460.8881510011852 8535.1366858910769 38.946329655125737 15.031500883400442 145.26245199143887 8.4204557836055756 222.68546150997281 578.04917429760098 95.696777824312449 6.4453932270407668 198.0807531401515 85.291967004537582 5.1232891231775275 7.1747848242521295 11.787598993629215 1877.5615625195205 685.48679041489959 6.5872961580753326 261.05882665142417 539.38116122037172 135.63123179227114 184.30167493969202 2.1471833400428277 58.541456315666437
leaf_count=212030 16086 495160 276 64557 73111 782 38830 230122 896 287 1708 191 6324 13710 1189 37 4868 1987 126 164 300 52938 16492 59 7495 15241 3794 3883 47 819
internal_value=0 -0.0227813 0.157296 0.0167185 -0.147173 -0.0213464 0.0323303 0.021458 0.0875758 0.355644 0.470158 0.363616 -0.0233114 0.484711 0.880503 1.38935 0.509652 0.351135 1.52206 2.27687 0.0655243 0.00808757 0.231807 0.381762 -0.146877 -0.0222166 0.170496 0.495847 3.02867 1.17921
internal_weight=0 39055.8 5522.91 29643.1 9412.61 2747.78 27552.2 26091.3 8574.08 1746.58 1169.18 1023.92 244.162 779.756 201.707 21.4769 238.019 106.01 20.7185 15.5952 3776.33 2807.2 969.13 694.221 274.909 2736.88 859.314 319.933 8.73448 70.3291
internal_count=1263509 1120356 143153 829565 290791 78761 765008 726178 231018 41809 25723 24015 6648 17367 3657 324 5650 2468 481 355 101344 76975 24369 16598 7771 75856 22918 7677 106 1119
shrinkage=0.05


Tree=13
num_leaves=31
num_cat=0
split_feature=2 7 5 1 2 3 4 3 7 3 4 3 7 4 2 7 2 3 1 6 1 3 4 1 1 7 1 6 1 2
split_gain=141.623 156.423 87.948 87.2763 73.9127 59.9025 51.7687 56.1836 53.7208 47.3952 48.2968 91.1683 39.4603 34.7662 139.038 48.2174 66.9121 118.913 35.9798 34.356 34.1917 33.5663 32.1368 32.119 41.0315 32.0893 43.3372 52.455 81.3903 37.459
threshold=2.133261884305576 -0.67857584478096056 -0.72925523629679867 -0.054285137070210966 0.68370231341332055 0.24347313348529967 -0.029773563934706 -0.081080101526394333 0.36874972360306402 1.8782088934430246 0.0087067455162258885 0.79543668294814684 -2.4798890120394588 -0.037625737271391409 6.880426317626009 -0.6219602224795866 3.4766899135170122 -1.0288757205918471 -0.25056296250612159 0.093045289145362239 -0.23389081625490626 -1.1754768676812439 -0.031322919697672751 -0.20577039676321668 -0.17840602523965704 -0.01850791284125939 -0.1908326094512183 -0.11427200642478143 -0.188245822076654 4.0058022655376835
decision_type=2 2 2 2 2 2 2 2 2 2 2 2 2 2 2 2 2 2 2 2 2 2 2 2 2 2 2 2 2 2
left_child=1 4 6 9 -1 20 12 -8 25 10 -3 -12 -2 -4 15 18 -17 -18 -15 -11 -6 -20 -19 -10 -25 26 -9 -28 -29 -27
right_child=2 3 13 -5 5 -7 7 8 23 19 11 -13 -14 14 -16 16 17 22 21 -21 -22 -23 -24 24 -26 29 27 28 -30 -31
leaf_value=-0.0097347756475671988 0.077694857206687354 -0.00052571079413952528 -0.0077832900849668027 -0.0091093786167625156 0.012806060831986028 0.021745313430960284 0.011022435098780542 0.019135785089169945 0.11750832463730213 0.0087053541015156242 0.0036910895689727832 0.098257389965055106 -0.0076786869106177762 0.011741919595889756 0.12634520199334592 -0.0041724140882890481 0.002321937632757929 -0.02123401868640698 0.0090175374692003443 0.064032654193766317 -0.0045496510877309996 0.065428240053219192 0.060736289993815112 -0.011582770147839615 0.059824272933248185 -0.0050333482181327376 0.0357611895648281 0.31807311077791511 0.079728851273666967 0.069472221584077273
leaf_weight=6289.5337607562542 13.92327470704913 18116.540407862514 537.70671431720257 2093.9011818133295 322.06203746795654 281.92202722281218 504.51251206547022 192.62335753440857 19.197987198829651 1633.2359443455935 8941.8610426858068 25.060289468616247 219.34435134381056 419.00682767853141 23.353656701743603 1450.7943442389369 423.53702055290341 12.831281594932078 43.122608929872513 28.064545601606369 2360.2117777597159 68.12302728369832 139.43968118354678 23.512023836374283 133.07331094518304 126.30989828333259 77.301319748163223 3.7251844964921466 28.619457453489304 18.961712677031755
leaf_count=202640 160 512609 15391 65204 8083 6412 13460 4365 101 43160 240405 494 6245 10375 170 40319 11848 288 1073 689 69854 911 2334 151 1834 2930 1306 60 269 369
internal_value=0 -0.0193219 0.168156 0.0148946 -0.133345 -0.00315925 0.380193 0.468852 0.669569 0.0292539 0.0191953 0.0792168 -0.0485526 0.0755472 0.123752 0.101312 0.0310347 0.319306 0.369629 0.19318 -0.0492749 0.873994 1.07564 1.13765 0.981989 0.484651 0.670042 1.17078 2.23207 0.0979299
internal_weight=0 40092.4 4479.02 30838.7 9253.73 2964.2 1361.1 1127.84 623.324 28744.8 27083.5 8966.92 233.268 3117.92 2580.21 2556.85 2026.6 575.808 530.252 1661.3 2682.27 111.246 152.271 175.783 156.585 447.541 302.269 109.646 32.3446 145.272
internal_count=1263509 1149550 113959 862561 286989 84349 31250 24845 11385 797357 753508 240899 6405 82709 67318 67148 54789 14470 12359 43849 77937 1984 2622 2086 1985 9299 6000 1635 329 3299
shrinkage=0.05


Tree=14
num_leaves=31
num_cat=0
split_feature=0 2 0 3 7 2 0 3 0 3 0 2 3 3 3 5 5 5 2 0 2 2 2 0 3 2 0 7 6 3
split_gain=656.711 144.932 153.829 135.001 97.8386 78.0209 205.299 166.976 149.31 97.1494 70.9198 97.5614 158.878 88.5895 64.7895 83.3738 64.6858 59.4434 50.8535 48.7351 122.8 44.4636 40.6333 38.7024 37.5015 134.459 36.3242 50.4747 35.5043 32.1943
threshold=-0.90887604933472632 2.3825453943156529 -2.9508400299503355 -1.5443922977296392 1.5107673929927723 0.18468950323273828 2.2187244039401368 -1.2150737871908557 1.9142858106369138 1.9712393380302997 -2.7124596871216333 0.93622210409830486 0.57352677227988891 2.2659706951714864 -0.88728390418122138 0.15112024311314307 0.41536884074971187 1.7434284219582403 -0.13630241637859572 4.2742204584097161 4.2930401092097075 1.6115281162288173 3.6293161613772122 1.5924280265110193 -0.048446648026607177 -0.7405219152735022 -1.5759863218220314 1.3603855987215738 -0.057302796165139232 1.5493380562677237
decision_type=2 2 2 2 2 2 2 2 2 2 2 2 2 2 2 2 2 2 2 2 2 2 2 2 2 2 2 2 2 2
left_child=1 10 -3 22 5 8 7 -7 9 24 -1 13 14 26 -13 21 23 -5 -15 20 -8 -16 -4 -9 -2 -26 -12 -28 -14 -6
right_child=4 2 3 17 29 6 19 16 -10 -11 11 12 28 18 15 -17 -18 -19 -20 -21 -22 -23 -24 -25 25 -27 27 -29 -30 -31
leaf_value=-0.015664477206981674 -0.007325837208870283 -0.0057890702225566566 -0.0093860487948433952 0.049531245500897228 0.072046552916202863 0.0073473286114661687 0.0092043725145217106 0.048491016778961893 0.0069670959446890461 0.030590651459143248 -0.012301022500756273 -0.0087261823308739956 0.075990953082590976 0.0048794619373052689 0.013436905570237545 -0.0043117097285494911 0.020696539280125884 0.0096900613233689842 0.055600718648721431 0.00040085261956581937 0.15432343025075945 0.047332521856707742 0.03310320306398052 0.13343633438008395 -0.003989480836863484 0.031238598557331965 -0.0077281333088288703 0.016808115848231879 0.029969408485188864 0.024292257729823585
leaf_weight=2562.3883840832859 3483.0142403971404 1129.6399587206542 286.79674518108368 365.89210106059909 66.761803694069386 653.32713701948524 2673.7046999633312 555.63270077481866 11115.549103155732 208.93872812762856 6101.8694808948785 1551.6487997658551 54.677102170884609 641.36463116109371 376.67142048105597 717.2587873544544 266.23286217823625 126.13624298200011 53.057180561125278 2604.9080455154181 14.159967694431542 130.01982612907887 69.473370097577572 13.426641050726174 1924.6146545466036 314.7168866340071 6027.7423709444702 216.69559721276164 180.7546244058758 75.909392315894365
leaf_count=81367 102507 32856 8057 6724 560 16776 68223 8375 284805 4574 202283 46146 1067 19373 10569 20651 5111 2873 1327 68359 97 3109 1702 122 57758 8254 189147 5583 4535 619
internal_value=0 -0.131459 0.12588 0.447568 0.112028 0.107074 0.197795 0.525815 0.0709794 -0.0571365 -0.158807 -0.134137 0.028104 -0.171597 -0.0388549 0.133139 0.821884 0.786756 0.175841 0.105497 0.199949 0.443456 -0.0213156 1.01221 -0.081613 0.0193472 -0.191145 -0.137508 0.815919 0.936241
internal_weight=0 20592.1 1977.94 848.298 23970.9 23828.2 6781.39 1488.62 17046.8 5931.28 18614.1 16051.8 3011.03 13040.7 2775.6 1223.95 835.292 492.028 694.422 5292.77 2687.86 506.691 356.27 569.059 5722.35 2239.33 12346.3 6244.44 235.432 142.671
internal_count=1263509 637369 52212 19356 626140 624961 167063 30384 457898 173093 585157 503790 86077 417713 80475 34329 13608 9597 20700 136679 68320 13678 9759 8497 168519 66012 397013 194730 5602 1179
shrinkage=0.05


Tree=15
num_leaves=31
num_cat=0
split_feature=2 7 2 1 4 3 2 4 3 5 3 5 2 1 3 7 3 7 3 7 1 2 4 2 3 4 2 1 3 4
split_gain=122.813 92.0064 96.6823 79.0831 73.9966 119.295 78.0886 65.0115 61.8336 59.3381 52.9753 51.9041 42.8651 40.5798 38.9844 38.0423 56.1685 36.1537 33.9117 51.3206 45.3497 42.0617 59.8106 31.0781 58.4338 29.6813 35.3973 27.8604 43.2891 27.6195
threshold=2.9048419975433277 -0.88799850907425903 1.8211349387151676 -0.069915241163289385 -0.037625737271391409 -0.69384663943535785 6.880426317626009 -0.021379294689522564 -1.5443922977296392 -0.88068610387736346 1.8236170527221316 2.0337554149946091 1.9182773348196587 -0.18023010111405666 0.52445267502970638 1.7503595811910426 -1.3137139433541127 1.1850063662556167 -1.3137139433541127 0.36874972360306402 -0.15059608775975405 -0.53099277392813227 -0.0053025497782428904 0.70267479694726098 1.1086686842583526 -0.040163918461081215 1.470426533787349 -0.039976169281145342 2.3173368346699381 0.009490569188554095
decision_type=2 2 2 2 2 2 2 2 2 2 2 2 2 2 2 2 2 2 2 2 2 2 2 2 2 2 2 2 2 2
left_child=1 2 23 9 -2 15 7 -7 -4 14 17 12 -12 -13 -3 -6 -17 18 -11 20 -20 22 -21 -1 -25 -26 -27 28 -5 -16
right_child=4 3 8 27 5 6 -8 -9 -10 10 11 13 -14 -15 29 16 -18 -19 19 21 -22 -23 -24 24 25 26 -28 -29 -30 -31
leaf_value=-0.0089220733399059549 -0.005268676813206404 0.0041320988472066259 -0.0071978406988094145 -0.005021558192922237 -0.0081114115117002991 0.006557446487915378 0.085196565515234565 0.03366055312320481 0.03757805513552856 0.0038717180219692998 0.01074003620096485 0.12099781423023344 -0.017004656571297301 0.013793676260482168 0.012907830059868544 0.0050155404157022068 0.04897431574542032 -0.0060279118421490471 -0.0004082885219664253 0.011417947020599036 -0.0075778922687707809 -0.006781308895546817 -0.00059441919258466328 -0.0031571660028227016 -0.018547929677534603 0.086747025783714377 -0.022333994608343011 -0.013775696804347343 0.020865423537317556 0.046858066016871425
leaf_weight=5074.7022103164345 575.22965406626463 5332.468970021233 122.64969719201326 3355.335468750447 438.42545813322067 346.7846556045115 54.48166423663497 612.13378369063139 206.49482748284936 5146.692070780322 1340.2021440397948 17.761558141559362 154.89472341537476 17.367403233423829 847.74916226230562 508.29028545320034 84.320762552320957 2474.7039650920779 6106.7266600579023 2048.1428349185735 3452.1119522750378 864.26001487858593 2096.7910588402301 2110.2712286282331 13.287738317623733 37.381526647135615 9.0319564305245859 867.90145014598966 169.17001119628549 64.076069926843047
leaf_count=167739 16358 143286 3286 102435 12641 8145 613 11148 3632 135935 35289 379 4145 473 21347 13806 1601 74817 165966 54395 107254 26154 56234 62642 293 659 101 27004 4586 1146
internal_value=0 -0.0117595 -0.111524 0.0102347 0.211402 0.300535 0.5441 0.477349 0.41815 0.0286044 0.00577094 0.1857 0.157218 1.37869 0.115332 0.0609885 0.226126 -0.00664125 0.00766095 -0.0169909 -0.0599561 0.0649957 0.106839 -0.135615 -0.0354445 0.936024 1.31017 -0.115068 -0.0755249 0.306359
internal_weight=0 41930.2 7573.82 34356.4 2619.67 2044.44 1013.4 958.918 329.145 29963.9 23719.7 1530.23 1495.1 35.129 6244.29 1031.04 592.611 22189.4 19714.7 14568 9558.84 5009.19 4144.93 7244.67 2169.97 59.7012 46.4135 4392.41 3524.51 911.825
internal_count=1263509 1199197 238352 960845 64312 47954 19906 19293 6918 826820 661041 40286 39434 852 165779 28048 15407 620755 545938 410003 273220 136783 110629 231434 63695 1053 760 134025 107021 22493
shrinkage=0.05


Tree=16
num_leaves=31
num_cat=0
split_feature=0 7 0 7 2 0 3 0 3 4 3 2 2 3 0 0 2 3 2 0 3 0 0 2 3 1 0 2 7 4
split_gain=541.629 130.132 105.535 99.2397 66.6105 219.092 121.047 90.4847 82.7823 62.1553 58.3801 79.8368 70.6117 74.198 89.4373 64.7159 53.1027 49.8806 110.804 47.8434 49.8407 42.851 39.3314 33.0226 32.6063 37.8102 32.5767 51.3855 31.9733 30.4505
threshold=-0.90887604933472632 1.8448216084048792 -1.7877406247435261 1.3603855987215738 0.35159511576222774 2.4359764382749174 -1.1556242148560032 1.9369969407041177 2.0338856537284205 -0.018373384677710766 1.8515560403815019 1.0000000180025095e-35 0.58970998727476887 0.67578982477663818 -2.4206142956159886 -2.5555784778806956 0.31823137526956896 0.09166388893971085 -0.72676235044946791 -1.2355952478371572 -1.6138260808181271 1.0000000180025095e-35 -1.9393231336815953 3.8011712683134138 1.5493380562677237 -0.20577039676321668 -2.1916606017446019 -0.82943797166930555 1.8448216084048792 -0.0087418160330099189
decision_type=2 2 2 2 2 2 2 2 2 2 2 2 2 2 2 2 2 2 2 2 2 2 2 2 2 2 2 2 2 2
left_child=1 10 23 4 7 6 -6 8 17 -7 12 26 22 19 29 -13 -4 -2 -19 -14 -21 -8 -1 -3 -5 -26 -12 -28 -27 -15
right_child=3 2 16 24 5 9 21 -9 -10 -11 11 15 13 14 -16 -17 -18 18 -20 20 -22 -23 -24 -25 25 28 27 -29 -30 -31
leaf_value=-0.016296659901071691 -0.005471414851279748 -0.0016016938753392832 0.00061067142260273939 0.067782616444753654 0.010923352981604849 -0.0023996457464382243 0.031787222122880425 0.0060187121253724137 0.032085388636090804 0.0092033243405504981 -0.012206725483986249 0.0020399274851433877 -0.0079677919084749985 -0.0057979021705736392 0.037130537323703951 0.055838446433104663 0.038933000983423831 -0.00062773663122267932 0.032539222166060831 -0.0052276169804025404 0.027123170756559581 0.057169108933358241 -0.0091977510122417325 0.022680726418745106 0.080128834136622029 0.031412970863348023 -0.0027108332654152967 0.024667082976639991 -0.040939021828037964 0.027360624928305606
leaf_weight=2716.7306367233396 4207.6640347223729 2079.2199577558786 130.28875057026744 76.558679662644863 598.81816183775663 1966.4624199159443 441.45832744985819 11405.948459260166 179.3246015124023 2793.1747778505087 656.75757359340787 114.10364563204348 4619.7352565303445 450.00480988062918 220.7584867104888 109.16116799414158 294.85831744037569 1834.9675165899098 291.36847808212042 280.1195629350841 206.39494118280709 269.52747284621 6936.0542027764022 149.61894906312227 20.792385432869196 38.40662307292223 1151.6932809986174 200.83805822767317 24.636099483817816 81.311895465478301
leaf_count=93525 122743 59847 3668 668 14951 53018 7329 289427 3627 69028 21302 3350 141691 14341 4915 2318 5872 54961 7036 8274 5402 2760 224833 3743 115 398 35930 5702 209 2526
internal_value=0 -0.118716 0.0877969 0.102601 0.0973485 0.187888 0.549986 0.0666775 -0.0273568 0.0881953 -0.149606 0.0015866 -0.171367 -0.0847491 0.208401 0.568194 0.544068 -0.0463482 0.0784732 -0.127942 0.170207 0.828853 -0.223929 0.00066147 0.885366 0.450408 -0.0614984 0.0272428 0.060786 -0.0140484
internal_weight=0 20397.6 2653.99 24149.1 23988.7 6069.44 1309.8 17919.3 6513.32 4759.64 17743.7 2232.55 15511.1 5858.32 752.075 223.265 425.147 6334 2126.34 5106.25 486.515 710.986 9652.78 2228.84 160.394 83.8351 2009.29 1352.53 63.0427 531.317
internal_count=1263509 637239 73130 626270 624880 147086 25040 477794 188367 122046 564109 68602 495507 177149 21782 5668 9540 184740 61997 155367 13676 10089 318358 63590 1390 722 62934 41632 607 16867
shrinkage=0.05


Tree=17
num_leaves=31
num_cat=0
split_feature=0 2 0 3 7 2 0 3 0 3 2 2 3 0 3 0 3 2 0 4 7 0 0 2 0 5 5 7 5 2
split_gain=489.365 121.395 128.9 103.593 87.0689 59.3686 175.639 119.741 92.3983 81.132 110.675 58.7651 98.7289 81.0061 153.052 78.5247 60.6468 56.8092 56.2891 55.3556 50.0675 45.6441 41.4188 74.5333 49.7128 41.0263 34.3711 44.0353 30.8918 29.3459
threshold=-0.90887604933472632 2.9048419975433277 -3.2640640123027591 -1.808943894798245 1.5107673929927723 0.18468950323273828 2.4131825222231398 -1.1556242148560032 1.8569129949260781 0.09166388893971085 -0.81460093007634515 0.31823137526956896 1.3316733412292459 -2.3585806961155131 -0.52123176867013077 -1.7051471630086201 1.5493380562677237 0.98253775497948348 -2.9859126330154355 -0.018829079632909165 -2.0196055300806868 1.0000000180025095e-35 -2.4890224833710466 -0.61425951176675075 -1.9752755601340841 -0.040452518963038427 -0.72925523629679867 -2.4019436493629756 1.0000000180025095e-35 1.3984253307464718
decision_type=2 2 2 2 2 2 2 2 2 2 2 2 2 2 2 2 2 2 2 2 2 2 2 2 2 2 2 2 2 2
left_child=1 11 -3 -4 5 8 7 29 9 -2 -11 16 13 26 -15 17 -1 -16 -14 -8 -17 -9 -18 -24 -25 -19 27 -13 -22 -7
right_child=4 2 3 -5 -6 6 19 21 -10 10 -12 12 18 14 15 20 22 25 -20 -21 28 -23 23 24 -26 -27 -28 -29 -30 -31
leaf_value=-0.011719205271531256 -0.0080376549243727329 -0.0081590715755776432 0.00023005797105458785 0.039917808784828215 0.042642867112499108 0.0050176399838150632 -0.0024419928123003169 0.02723793396296037 0.0054052850449378123 -0.00041298602862117412 0.029765031016846744 0.090124907646459571 -0.0045779711942703083 -0.0072542781929723632 -0.0035741550892015883 0.0013541377332204289 -0.015468008906865102 0.042177083321985234 0.035983491875434349 0.0081000602837216426 0.051450331500321536 0.051459507602474711 -0.0041017359903410197 0.0038379151162582139 0.041461875592918036 0.0081850998485550087 -0.013708562662196146 -0.0041621548976695953 0.023276682193170171 0.035880795862398
leaf_weight=7242.9916283581406 2928.9262183383107 570.55679632723331 274.37495731189847 409.81127751991153 150.9522611387074 684.96826393529773 2010.6851382702589 568.42674957960844 12128.887694101781 1763.5510129351169 366.54435927420855 12.025594132021068 132.64283146895468 2974.51063635014 772.6314623169601 135.77767820470035 582.5285328142345 133.81547832116485 239.80702025070786 3269.6811320371926 184.76758098788559 297.53283748030663 2233.8993822764605 198.02240746840835 157.39179570786655 262.71883012354374 2463.2797656115144 1093.8411747310311 208.17465004138649 86.318166829645634
leaf_count=240917 87855 17027 7307 7203 1180 17738 54327 10019 309328 52219 8599 390 4169 91320 25885 3553 19302 3111 5983 80349 4216 2992 71195 6284 4183 6995 79078 33786 5335 1664
internal_value=0 -0.113483 0.187735 0.480277 0.0969922 0.0922413 0.170465 0.456573 0.0607545 -0.0527685 0.0957156 -0.133349 -0.0722381 -0.0950063 -0.00835229 0.231162 -0.183888 0.0864557 0.431026 0.081719 0.550768 0.711701 -0.0685601 -0.014337 0.410683 0.393896 -0.208429 -0.0619315 0.731458 0.169854
internal_weight=0 20283.6 1254.74 684.186 24256.5 24105.5 6917.61 1637.25 17187.9 5059.02 2130.1 19028.8 8613.99 8241.54 4672.4 1697.89 10414.8 1169.17 372.45 5280.37 528.72 865.96 3171.84 2589.31 355.414 396.534 3569.15 1105.87 392.942 771.286
internal_count=1263509 637239 31537 14510 626270 625090 167089 32413 458001 148673 60818 605702 263821 253669 140415 49095 341881 35991 10152 134676 13104 13011 100964 81662 10467 10106 113254 34176 9551 19402
shrinkage=0.05


Tree=18
num_leaves=31
num_cat=0
split_feature=0 7 0 7 2 0 3 0 3 3 2 3 0 0 2 1 0 3 2 3 4 2 0 2 3 0 2 3 2 3
split_gain=442.257 109.87 85.1372 76.2838 53.4064 169.322 106.679 73.7244 69.8382 52.036 58.1598 86.159 93.7676 44.3377 43.997 43.2898 42.9888 41.4034 84.6082 39.7799 39.7016 38.9065 30.8222 30.7794 30.11 39.9171 42.5616 41.8472 28.4078 27.4005
threshold=-0.90887604933472632 1.8448216084048792 -1.7877406247435261 1.5107673929927723 0.35159511576222774 3.0868026671870581 -1.1556242148560032 1.9369969407041177 2.0338856537284205 2.3173368346699381 0.60835802197634337 0.70849903586447927 -2.4206142956159886 -1.2355952478371572 4.720274876518773 -0.039976169281145342 -1.4147056176284645 0.09166388893971085 -0.72676235044946791 -1.6138260808181271 -0.018373384677710766 0.31823137526956896 -1.7534144973836552 5.4722194127931978 -1.5219093092575262 -1.7369689002420332 3.8011712683134138 0.24347313348529967 3.8011712683134138 1.3316733412292459
decision_type=2 2 2 2 2 2 2 2 2 2 2 2 2 2 2 2 2 2 2 2 2 2 2 2 2 2 2 2 2 2
left_child=1 9 28 4 7 6 -6 8 17 10 16 13 -13 24 -8 22 -1 -2 -19 -15 -7 -4 -11 -22 -12 26 -26 -28 -3 -18
right_child=3 2 21 -5 5 20 14 -9 -10 15 11 12 -14 19 -16 -17 29 18 -20 -21 23 -23 -24 -25 25 -27 27 -29 -30 -31
leaf_value=-0.012078415218262258 -0.0050661351363606279 -0.0014874166428395664 0.0010131823917783655 0.039540789397103704 0.010787024508447891 -0.0023115729494010986 0.032583470017645097 0.0053897909192598126 0.028636548088158371 0.0057741831545946136 -0.015779155290223477 0.00030965798877173638 0.038046925370453968 -0.0038022446050175115 0.090824514451634336 -0.013257772277232259 -0.0078344214932369767 -0.00059093803198015176 0.027687904416182699 0.025339398262928182 0.0068040530788558463 0.033628559448042834 0.031935864314730444 0.071215173481692609 -0.0082188537836462815 0.0086215780357463117 0.015518496260978504 0.13121090257676998 0.020782534059604538 0.0017142908378247599
leaf_weight=6704.9386830609292 4172.5726634003222 2074.3267678022385 129.32618745975196 154.59617219865322 1064.596596557647 1951.2462219595909 743.07549191638827 11527.422809008509 189.06720733642578 387.10143861733377 847.12603583931923 517.05338739417493 240.99387123249471 271.90737263672054 33.604568600654602 210.87184910662472 3295.6396011617035 1837.5217929556966 308.47421111911535 205.0459926314652 2358.0289365202188 311.85034370794892 158.43038283288479 18.200749177485704 3156.3766319863498 449.91125261597335 79.243596101179719 8.199015371501444 153.3143602386117 972.88321890309453
leaf_count=229548 122744 59847 3668 1180 26115 52875 10235 289451 3681 11610 26233 16411 4831 8117 209 6652 106763 55025 7038 5180 57382 5872 3812 335 99193 13315 2044 92 3743 30308
internal_value=0 -0.108477 0.0805146 0.0917154 0.0872338 0.167549 0.421495 0.0597586 -0.0253348 -0.137291 -0.148877 -0.0676466 0.246481 -0.115122 0.703204 0.119205 -0.191628 -0.0432743 0.0695896 0.174788 0.059463 0.481594 0.267884 0.146246 -0.145589 -0.106565 -0.145282 0.541013 0.000992041 -0.113163
internal_weight=0 20174.5 2668.82 24358.4 24203.8 6168.75 1841.28 18035.1 6507.64 17505.7 16749.3 5775.86 758.047 5017.81 776.68 756.404 10973.5 6318.57 2146 476.953 4327.48 441.177 545.532 2376.23 4540.86 3693.73 3243.82 87.4426 2227.64 4268.52
internal_count=1263509 637239 73130 626270 625090 147151 36559 477939 188488 564109 542035 175416 21242 154174 10444 22074 366619 184807 62063 13297 110592 9540 15422 57717 140877 114644 101329 2136 63590 137071
shrinkage=0.05


Tree=19
num_leaves=31
num_cat=0
split_feature=0 2 0 3 7 0 2 3 5 3 2 2 0 2 0 3 2 5 3 2 3 0 0 3 2 3 0 2 0 0
split_gain=399.625 103.699 108.35 85.828 67.0104 50.859 86.3362 112.883 85.7168 70.5246 100.991 47.5325 150.795 110.663 67.1558 68.6503 101.625 43.91 40.1642 37.0506 45.1407 99.6682 37.6274 47.328 34.5475 34.1328 31.1242 30.5039 51.8608 27.019
threshold=-0.90887604933472632 2.9048419975433277 -3.2640640123027591 -1.808943894798245 1.5107673929927723 -2.7124596871216333 0.8896660187920703 -0.53673411618491518 -0.30612259961411842 1.5493380562677237 -0.096086924374809257 0.35159511576222774 3.4465223423664 1.5054212601345711 1.8569129949260781 0.09166388893971085 -1.1310033933809791 -1.490943237744107 0.72550736543030159 -0.29872860634156745 -0.5064629717048702 -1.2355952478371572 -1.7369689002420332 0.60683700989166889 4.720274876518773 0.94194325346574559 1.0000000180025095e-35 -1.2262355277960155 -1.8219162403358982 -2.0796057166337087
decision_type=2 2 2 2 2 2 2 2 2 2 2 2 2 2 2 2 2 2 2 2 2 2 2 2 2 2 2 2 2 2
left_child=1 5 -3 -4 11 -1 9 -8 -9 19 27 14 13 17 15 -2 -17 -13 29 -7 -21 22 -22 -24 -15 26 -18 -11 -29 -10
right_child=4 2 3 -5 -6 6 7 8 18 10 -12 12 -14 24 -16 16 25 -19 -20 20 21 -23 23 -25 -26 -27 -28 28 -30 -31
leaf_value=-0.012194476601963006 -0.0067480841156883206 -0.0076538185115078835 -7.4078941566205264e-06 0.035773786686497354 0.036744867825929332 -0.013015338797512691 -0.0050254694234965853 0.03306350380131818 -0.0065262206612069235 -0.0076317932495498786 0.034470053080833452 0.035597300369787414 0.001835624654504057 0.036259503177306536 0.0047826067353501618 -0.0022130384955950915 0.0101467621277272 0.010219439062853868 0.027084488527994471 -0.012305985733224124 -0.0094632878847799098 0.021006300237261789 -0.0028283997150754438 0.0258550149092058 0.086032128265808416 0.036446843843581309 0.085241626180939001 -0.0043545192968185509 0.017038026622785252 0.013835473690502746
leaf_weight=2908.0734601430595 3071.8886999618262 564.28258761018515 275.55678077414632 427.2571245059371 157.98828505724669 3601.2383698802441 2165.5423487853259 393.89759971387684 498.77431532554328 1419.247992573306 196.60445504263043 188.81431917473674 3868.7282433919609 393.88143917173147 12818.672391336411 1535.8358189221472 407.37170750647783 1722.6884124018252 169.2544216606766 2187.0257708523422 2367.1958592552692 379.50433526746929 855.16021368093789 172.36993496492505 38.147886727005243 236.64830222539604 13.796480443328617 814.67410284280777 433.73450060375035 241.33920323289931
leaf_count=95186 92607 17027 7307 7203 1180 122068 65263 8759 15426 45551 5280 3489 99065 4477 323796 45774 10521 39897 3766 71681 82884 11417 27865 5235 223 4970 271 27036 12782 5503
internal_value=0 -0.103646 0.173205 0.435096 0.086753 -0.122305 -0.100055 0.039432 0.271912 -0.138991 -0.00134192 0.0825234 0.157986 0.358136 0.0565969 -0.0384812 0.0966256 0.254697 0.102989 -0.180219 -0.13182 -0.0655639 -0.119914 0.0398705 0.814975 0.425344 0.254097 -0.0523689 0.0616347 0.00236522
internal_weight=0 20070.7 1267.1 702.814 24454.5 18803.6 15895.6 3468.81 1303.27 12426.8 2864.26 24296.5 6212.26 2343.53 18084.2 5265.54 2193.65 1911.5 909.368 9562.49 5961.26 3774.23 3394.73 1027.53 432.029 657.816 421.168 2667.66 1248.41 740.114
internal_count=1263509 637239 31537 14510 626270 605702 510516 98717 33454 411799 90649 625090 147151 48086 477939 154143 61536 43386 24695 321150 199082 127401 115984 33100 4700 15762 10792 85369 39818 20929
shrinkage=0.05


Tree=20
num_leaves=31
num_cat=0
split_feature=0 2 0 4 2 0 3 0 3 0 2 3 3 2 0 5 2 3 0 3 2 3 0 4 5 2 2 6 0 3
split_gain=361.137 81.6366 91.7896 59.7922 54.7152 132.587 135.321 105.795 68.891 51.628 78.3803 76.6991 70.4336 103.991 66.121 49.9206 47.1281 55.7832 73.0641 43.347 64.6327 40.2491 47.634 38.4543 38.4481 36.3846 31.9588 28.0244 27.4989 23.8343
threshold=-1.0067906060624037 2.9048419975433277 -3.2640640123027591 0.00066816249606298868 0.15488022167948726 2.8877015106574144 -1.4358491850076989 1.8569129949260781 2.3173368346699381 -2.6045648556857239 1.2742498454928153 -1.1556242148560032 1.2639219870224701 -0.46121387157336496 -1.9574520320336128 0.63276382745068993 -0.13630241637859572 -0.52123176867013077 -1.640855917415075 0.21269453322915446 -1.4014972852647787 0.92270919856058853 -0.19389663013888075 0.0042580276310810756 -1.3521864895872395 4.720274876518773 -0.75538430553942293 0.029757487065668112 1.78008804998782 1.6232982584142857
decision_type=2 2 2 2 2 2 2 2 2 2 2 2 2 2 2 2 2 2 2 2 2 2 2 2 2 2 2 2 2 2
left_child=1 9 -3 -4 7 6 -6 8 19 -1 12 -12 16 -14 -15 25 -11 -18 -19 -2 28 22 26 -7 -20 -8 -22 -13 29 -21
right_child=4 2 3 -5 5 23 15 -9 -10 10 11 27 13 14 -16 -17 17 18 24 20 21 -23 -24 -25 -26 -27 -28 -29 -30 -31
leaf_value=-0.011831313047905722 -0.0078548652114720403 -0.0084203414368897774 0.037965149633691214 0.0078133692405448815 0.0043089434900048466 -6.3570803188321492e-05 0.029982357302373381 0.0047543096809384306 0.038149075494859769 -0.013583081988389815 -0.006448518130794942 0.021527645134859649 -0.0043442070283493967 0.005219575594157499 0.039206057556428746 0.011766384521690111 -0.011608283271838698 -0.0062122491938335703 0.033775554997459462 -0.013072999717014392 -0.0099181465656612983 0.024829441240022218 0.06961444722092569 0.010369349847296167 0.0059186094399417211 0.065219071654197658 0.016085160685264433 0.0044982076191343928 0.016061628229491396 0.0013022457000287752
leaf_weight=3455.6242660954595 3332.7533729206771 559.46118748188019 255.67191624641418 460.05843324959278 1261.1026485525072 3813.1121711954474 925.82096590287983 12166.903236899525 97.083443451672792 3242.4526351727545 837.75922115147114 556.15788089856505 2847.6427010316402 365.22279951348901 235.00969238206744 393.01832166314125 2535.2109914086759 2386.7666754070669 149.62842558138072 803.48164243809879 320.55231708474457 350.22808722965419 25.055028971284628 1148.9812360927463 709.99123354814947 79.562289245426655 186.47563224472106 427.40909668058157 131.69756907224655 449.45546975359321
leaf_count=114207 102177 17008 3894 10714 31945 97990 13818 306212 1723 111487 25017 12790 93009 11647 5841 7605 83368 81714 4278 24966 9957 9140 535 27508 21507 394 4709 11245 3858 13246
internal_value=0 -0.109383 0.134971 0.372062 0.0726961 0.14363 0.323769 0.0424285 -0.0700336 -0.126942 -0.100417 0.093344 -0.128715 -0.00713726 0.370958 0.537924 -0.175165 -0.121028 -0.0342143 -0.0845426 0.0221349 0.233587 0.0601705 0.0470598 0.215686 0.656038 -0.00696359 0.282671 -0.112642 -0.158357
internal_weight=0 19024.1 1275.19 715.73 25485.3 7621.6 2659.5 17863.7 5696.78 17748.9 14293.3 1821.33 12471.9 3447.88 600.232 1398.4 9024.05 5781.6 3246.39 5599.7 2266.95 882.311 532.083 4962.09 859.62 1005.38 507.028 983.567 1384.63 1252.94
internal_count=1263509 607726 31616 14608 655783 179260 53762 476523 170311 576110 461903 49052 412851 110497 17488 21817 302354 190867 107499 168588 66411 24341 15201 125498 25785 14212 14666 24035 42070 38212
shrinkage=0.05


Tree=21
num_leaves=31
num_cat=0
split_feature=0 2 0 0 0 0 7 0 2 6 0 2 4 2 1 4 4 4 2 4 5 2 4 7 6 7 4 7 1 4
split_gain=328.364 80.9781 99.809 55.8505 74.5802 54.6177 55.3109 53.5358 84.4961 47.5105 47.0006 90.8994 42.3724 42.3353 49.5507 40.8742 40.166 38.1561 37.7898 35.9153 34.8887 33.13 30.3233 43.1593 33.8578 29.7236 29.2716 28.9109 24.4412 27.6232
threshold=-0.58937103644295041 0.86657611159942827 -1.4705637254763553 0.97634891222315934 -0.19389663013888075 -1.9393231336815953 1.1210527388847287 1.8569129949260781 0.52016758150090181 -0.066480760113610274 -3.0675168550808101 3.2202371509190999 -0.017120187867179327 -0.28562033203772313 -0.13815739476857661 -0.031322919697672751 0.0033785125205852084 -0.012525521934921721 -0.72676235044946791 0.00066816249606298868 1.7434284219582403 6.880426317626009 0.022050863677083667 -1.8424092749526422 -0.1222694385279811 -2.1637887427468274 -0.016534594596765161 0.24233149507842544 -0.15233995952246554 0.010597046261237999
decision_type=2 2 2 2 2 2 2 2 2 2 2 2 2 2 2 2 2 2 2 2 2 2 2 2 2 2 2 2 2 2
left_child=1 5 10 4 18 -1 12 8 -5 17 -3 28 -7 -14 -15 25 -11 26 -2 20 -13 -17 23 -16 -25 -9 -4 -20 -12 -30
right_child=3 2 9 7 -6 6 -8 15 -10 16 11 19 13 14 22 21 -18 -19 27 -21 -22 -23 -24 24 -26 -27 -28 -29 29 -31
leaf_value=-0.011209576963002349 -0.0047042460805021913 -0.0092600072701462584 0.037439319357851213 -0.0066472549311627632 0.025644580932309469 -0.00052349804627499659 0.010179337133729998 0.063743936773390061 0.043792820968975493 0.022252031019311683 -0.0044640495677271885 0.063245246538319186 -0.011266150050646004 -0.0091997054147940193 -0.012975717229623733 0.0047181668067595803 -0.00047915250426396375 0.02839042502718413 0.0083035550497201176 0.012279120486803241 0.0094181587639677253 0.066801498978708213 -0.0062517273743789769 0.027596945646548222 0.0060528583413159706 -0.0055242116622312709 0.15660778874324169 0.034678904335687356 0.015190979789820308 -0.0011821149711145672
leaf_weight=4424.3990133423358 561.62679909914732 1797.5473127681762 10.535188177600505 1919.7755097337067 667.02682907134295 3051.3558676410466 595.69585202634335 15.18933419883251 86.284583047032356 331.27312273345888 2720.3575945608318 87.463804956525564 3738.3111825510859 1925.0283192377537 207.29118416085839 16582.441406667233 469.08081930503249 188.31273798830807 783.33108251169324 233.95921516790986 46.068325776606798 21.019637178629637 629.51617150194943 257.4302089009434 623.897794932127 1215.4724628478289 10.425886098295448 119.40688297897577 382.50210694409907 786.59750558249652
leaf_count=155277 15813 56132 164 58568 10267 97220 16995 163 520 6367 81876 1032 124695 61557 6993 412235 13100 3297 17197 5307 723 241 20149 8066 19797 34211 84 2142 10695 22626
internal_value=0 -0.0897867 -0.00109015 0.0820481 0.235855 -0.130332 -0.0926691 0.0655193 -0.0893471 0.28991 -0.0496364 0.00762207 -0.109594 -0.150566 -0.0738364 0.0829414 0.17875 0.713597 0.109531 0.482665 0.895588 0.0959754 0.0496039 0.150603 0.247157 -0.0928747 1.97961 0.236191 -0.0373182 0.0835797
internal_weight=0 22517 7064.12 21971.6 2131.39 15452.9 11028.5 19840.2 2006.06 1009.63 6054.5 4256.95 10432.8 7381.47 3643.16 17834.1 800.354 209.274 1464.36 367.491 133.532 16603.5 1718.14 1088.62 881.328 1230.66 20.9611 902.738 3889.46 1169.1
internal_count=1263509 712152 201403 551357 45419 510749 355472 505938 59088 23012 178391 122259 338477 241257 116562 446850 19467 3545 35152 7062 1755 412476 55005 34856 27863 34374 248 19339 115197 33321
shrinkage=0.05


Tree=22
num_leaves=31
num_cat=0
split_feature=0 2 0 7 0 2 4 2 0 0 2 6 4 4 6 2 6 4 7 0 7 7 0 1 2 0 7 2 7 6
split_gain=299.705 72.756 74.6457 63.9552 50.3248 49.3065 54.9858 45.1212 109.784 85.0272 79.1314 33.6766 33.1908 31.0416 39.2803 31.1951 27.6748 32.1861 27.4443 25.5001 24.9258 24.6037 23.3072 23.2996 23.8447 22.6264 22.0807 22.0651 40.068 21.6366
threshold=-1.0067906060624037 2.3825453943156529 -2.9508400299503355 1.4178040447413194 -2.6828975564272146 1.0835788611531174 -0.016923611962132715 0.15488022167948726 2.8877015106574144 1.8569129949260781 1.8211349387151676 -0.088558672638788874 0.0042580276310810756 -0.015334550880730238 -0.035158053122388802 -1.9102433812178694 -0.07482022016590624 0.0066076984437613657 0.38798021123694415 -1.9574520320336128 1.4668373312895457 -1.1618446524725361 -1.3843156329492985 -0.18910739073230939 0.43230470419411354 3.5777969117661774 -2.1637887427468274 -0.53099277392813227 -0.26846581333089264 0.068582516142433866
decision_type=2 2 2 2 2 2 2 2 2 2 2 2 2 2 2 2 2 2 2 2 2 2 2 2 2 2 2 2 2 2
left_child=1 4 -3 18 -1 6 20 9 10 13 11 -9 26 14 15 -2 -7 19 -4 -18 22 -16 29 -22 -25 -11 -10 -15 -29 -6
right_child=7 2 3 -5 5 16 -8 8 12 25 -12 -13 -14 27 21 -17 17 -19 -20 -21 23 -23 -24 24 -26 -27 -28 28 -30 -31
leaf_value=-0.012596791001739216 -0.0061088622817627924 -0.004790581493582211 0.0085633268935133913 0.0090964085976243773 -0.0031263921838006188 0.01233211748481846 -0.0086899121705869466 0.024024122164936906 0.058627478974214657 0.0046585458602362113 0.033332582162722633 0.0078746459185682263 0.009467540963561439 -0.0072539482417463526 0.066128320486586345 0.035244714588626769 -0.0018066246471334848 -0.010896983127760038 0.060144672071939333 0.013091033597547694 -0.0095873599892855651 -0.0011492894386675391 0.0042602290629720797 0.012338735424493466 0.052984884548004797 -0.0069562590319605854 -0.00041704195543384564 -0.0069377983054191867 0.012331843545568311 -0.015532995830220206
leaf_weight=2526.1376744005829 64.654175980016589 1089.489634077996 35.195140808820724 768.45279552042484 2499.5026659611613 485.51854037307203 7860.8364458251745 390.62270429357886 15.400271289050577 11837.549246083945 465.62898522987962 1855.0624949429184 1165.0824615992606 3252.5798483714461 13.266388818621634 153.20572369173169 826.28880927339196 574.10045067034662 97.904650472104549 439.71988476999104 88.970779756084085 1056.3351338431239 919.26495336741209 178.13636479340494 44.916895404458046 434.27569154277444 3804.8950763866305 663.66620509698987 453.79219758696854 408.49835704267025
leaf_count=85979 1972 32668 548 17538 84360 12649 267470 7173 160 295499 3689 42900 27508 99974 383 3390 25130 17065 1316 10838 2775 31238 28646 5285 1250 10713 97830 20427 12927 14209
internal_value=0 -0.10045 0.0803117 0.293085 -0.121808 -0.0988544 -0.12468 0.0656831 0.129725 0.0381883 0.291654 0.213769 0.0416391 -0.0632316 0.073217 0.459727 0.0344045 -0.0216469 0.931766 0.0674174 -0.0313918 -0.00568659 -0.0535589 0.240159 0.412479 0.0849451 -0.00342765 -0.103435 0.0177897 -0.0974313
internal_weight=0 18842.9 1991.04 901.553 16851.9 14325.8 12000.1 25626 7696.69 17929.3 2711.31 2245.69 4985.38 5657.5 1287.46 217.86 2325.63 1840.11 133.1 1266.01 4139.29 1069.6 3827.27 312.024 223.053 12271.8 3820.3 4370.04 1117.46 2908
internal_count=1263509 607726 52070 19402 555656 469677 403995 655783 179260 476523 53762 50073 125498 170311 36983 5362 65682 53033 1864 35968 136525 31621 127215 9310 6535 306212 97990 133328 33354 98569
shrinkage=0.05


Tree=23
num_leaves=31
num_cat=0
split_feature=0 2 3 0 0 3 3 2 0 0 0 3 0 2 2 2 0 0 2 3 0 4 0 7 3 2 2 3 6 4
split_gain=271.362 70.8136 90.4262 67.8017 64.0714 71.3835 62.5892 46.3424 51.7971 46.238 62.0603 43.9145 43.5208 68.3005 41.5628 41.3568 78.9099 36.7011 42.5036 111.763 38.8668 35.0102 34.8107 31.2066 30.739 38.0052 30.476 29.7459 27.428 25.6004
threshold=-0.58937103644295041 0.60835802197634337 0.65808162645095358 -2.9508400299503355 -2.2451727738334806 -0.52123176867013077 1.6962072558515799 3.2202371509190999 -3.2640640123027591 0.97634891222315934 -0.37592283446632618 -1.9486160923887963 1.8451610102708653 0.52016758150090181 2.0206614457705281 -1.9102433812178694 -1.5000686836092751 -1.6734258051629125 -0.32495602940912316 -0.016724773270983977 -1.265887444187306 -0.031322919697672751 -1.1752184707827069 1.4668373312895457 0.045039929046367264 -0.7405219152735022 6.880426317626009 -1.6138260808181271 -0.063645054710331314 -0.0079532607214903277
decision_type=2 2 2 2 2 2 2 2 2 2 2 2 2 2 2 2 2 2 2 2 2 2 2 2 2 2 2 2 2 2
left_child=1 6 4 -4 7 14 17 -3 -9 10 -2 -10 13 -11 22 -8 23 -1 24 -20 -21 -14 -6 -17 -19 -26 -23 -24 -5 -7
right_child=9 2 3 28 5 29 15 8 11 12 -12 -13 21 -15 -16 16 -18 18 19 20 -22 26 27 -25 25 -27 -28 -29 -30 -31
leaf_value=-0.012096923355980366 0.0017657000578801749 -0.0090968774148612961 -0.0040724578130198032 0.039872153737720434 -0.0077410272112340434 0.0069679522957805887 -0.015509331436061844 -0.0074505371059806679 0.00093226588185998504 -0.006625093332005289 0.018720180136376566 0.036606060647909125 -0.0044706827554295437 0.038242245383317691 0.017268611883154174 -0.0044364808734453851 0.016518270576408482 -0.018169111874369124 -0.0066404265513054757 0.0060730380033714223 0.029975825927599897 0.0042003500147888761 -0.0014057893567165141 0.026310504837499967 -0.010245776995185496 0.0028016702375789093 0.061696469256084102 0.022179074671343252 0.016834595839740465 0.023762669888294598
leaf_weight=3726.4850115422159 1031.0098478458822 3363.7584350407124 348.25806997716427 179.89485958404839 1619.9842712711543 499.16684127226472 369.39228734187782 406.45698601193726 171.48332311958075 1729.4227807167917 1132.4991292208433 173.15612090751529 1225.8064706847072 88.699741490185261 257.94240139424801 1789.2077119722962 712.8569262791425 805.43219133280218 2511.3089574985206 413.47947374731302 288.78629206307232 16882.353083932772 409.6531978957355 86.018814159557223 2402.5905375145376 726.72479863278568 22.581630479544401 197.91826916672289 461.18110661022365 416.42858160287142
leaf_count=136107 25330 107482 11652 2807 51627 12713 11874 12553 4412 53602 20089 3327 34386 516 5375 59812 19667 27193 81570 13047 7493 417190 11565 2386 80319 24287 244 4907 11024 8953
internal_value=0 -0.0822503 -0.010446 0.273675 -0.047861 0.0536917 -0.1264 -0.131795 0.09274 0.0740176 0.212858 0.377656 0.0589551 -0.0885253 -0.0342488 0.00258954 0.0472828 -0.161478 -0.119519 -0.0341857 0.318334 0.0737462 -0.0782751 -0.0603889 -0.189199 -0.144316 0.0855795 0.125779 0.466506 0.292306
internal_weight=0 22337.6 8505.28 989.334 7515.95 3401.09 13832.3 4114.85 751.096 22112.4 2163.51 344.639 19948.9 1818.12 2485.5 2957.48 2588.08 10874.8 7148.32 3213.57 702.266 18130.7 2227.56 1875.23 3934.75 3129.32 16904.9 607.571 641.076 915.595
internal_count=1263509 712152 248397 25483 222914 95140 463755 127774 20292 551357 45419 7739 505938 54118 73474 93739 81865 370016 233909 102110 20540 451820 68099 62198 131799 104606 417434 16472 13831 21666
shrinkage=0.05


Tree=24
num_leaves=31
num_cat=0
split_feature=0 2 0 3 0 2 2 3 2 0 3 5 2 3 0 2 0 3 0 3 2 4 5 2 4 0 2 3 4 7
split_gain=248.503 62.5736 62.6058 61.1126 45.3629 44.3876 44.156 56.688 78.5286 94.0115 50.668 49.0476 38.8433 49.3728 61.6297 38.0232 122.427 65.9778 59.7763 44.8198 83.7797 31.9011 31.2748 29.6587 28.5836 29.3479 40.8422 42.3524 22.7673 24.9328
threshold=-1.0067906060624037 2.3825453943156529 -3.0675168550808101 -1.5443922977296392 -2.6828975564272146 3.4766899135170122 1.2742498454928153 1.2639219870224701 -0.71284028635759245 -1.8692379685468969 -0.52123176867013077 0.63276382745068993 -0.13630241637859572 -0.52123176867013077 -1.640855917415075 0.4677030183988779 3.38206168774142 -1.4358491850076989 1.9956757939046443 0.09166388893971085 -0.72676235044946791 0.00066816249606298868 1.7434284219582403 6.880426317626009 -0.0024121247089919852 1.7602300341925414 -1.9102433812178694 1.6488281788946473 0.0042580276310810756 0.52438702884458388
decision_type=2 2 2 2 2 2 2 2 2 2 2 2 2 2 2 2 2 2 2 2 2 2 2 2 2 2 2 2 2 2
left_child=1 4 -3 5 -1 -4 7 12 -9 -10 -8 -12 -6 -14 -15 18 17 -17 19 -2 24 -16 -5 -19 25 26 -21 -28 -18 -30
right_child=15 2 3 22 6 -7 10 8 9 -11 11 -13 13 14 21 16 28 23 -20 20 -22 -23 -24 -25 -26 -27 27 -29 29 -31
leaf_value=-0.011847266294916094 -0.0039906450024000161 -0.0053844859711610869 -0.01336258307609001 0.028817996232163995 -0.012139251782709581 0.021951607667732145 -0.0033749240331956056 -0.0047881148844800686 0.0014517946900962052 0.035060898310933349 0.030601504163744322 0.0020573545662637138 -0.010584442867943987 -0.0052933707681155273 0.0049469816221955377 0.0064906351072215917 -0.00087715837464309113 0.022017183804056355 0.0042899672287689955 -0.012111846192080151 0.022101481978405179 0.027735722659387532 0.0027150695682280524 0.072182413940827292 -0.0094501243233094199 0.015750461325500634 -0.00090944821153282878 0.021776145438331996 0.0072384672414720248 0.054474029015397767
leaf_weight=2480.3243206329644 5442.8371255937964 966.61644906364381 287.93589773587883 461.81702347658575 3144.4463915787637 128.18490893766284 1111.5283448435366 2534.7022905871272 666.43818130530417 302.04857942834496 267.00874688662589 344.23292670026422 2483.1449497379363 2478.4733151569963 668.40556163154542 1112.4748635999858 3182.5128936320543 1216.1140751354396 11136.749511431903 482.10203000158072 508.85674440488219 199.00116010755301 152.78428659029305 29.807619016617537 620.62640022113919 359.85669737495482 719.39601816609502 287.62534415908158 627.30354015901685 28.759091470390558
leaf_count=85979 158317 29614 8155 7898 111881 2963 33151 84182 21979 7471 5323 9112 83864 86929 20321 27027 82071 16325 272594 14977 10627 5464 3440 132 19197 9670 22582 7022 14575 667
internal_value=0 -0.092147 0.0751051 0.2465 -0.112176 -0.049417 -0.0903745 -0.111096 -0.00321351 0.238928 0.0596818 0.290822 -0.15321 -0.104872 -0.0255784 0.0593567 0.127614 0.306906 0.0377267 -0.0258483 0.0727632 0.203763 0.446731 0.464916 -0.00339733 0.0589369 -0.00302963 0.111552 0.0174323 0.18698
internal_weight=0 18677.1 1997.34 1030.72 16679.8 416.121 14199.4 12476.7 3503.19 968.487 1722.77 611.242 8973.47 5829.02 3345.88 25755 6196.97 2358.4 19558 8421.3 2978.46 867.407 614.601 1245.92 2469.61 1848.98 1489.12 1007.02 3838.58 656.063
internal_count=1263509 607726 52070 22456 555656 11118 469677 422091 113632 29450 47586 14435 308459 196578 112714 655783 140797 43484 514986 242392 84075 25785 11338 16457 73448 54251 44581 29604 97313 15242
shrinkage=0.05


Tree=25
num_leaves=31
num_cat=0
split_feature=0 2 0 2 0 3 0 3 2 2 3 6 3 3 2 0 3 2 4 2 0 3 3 5 2 4 5 1 0 2
split_gain=246.571 77.7012 69.0231 45.3583 94.9597 92.1697 75.1455 64.3706 164.284 45.1363 82.195 47.3618 43.2978 38.788 35.7957 39.2459 34.4393 54.7465 30.7525 28.607 28.546 27.4718 25.3639 27.6657 25.0371 31.5496 24.385 24.2874 23.9671 27.6242
threshold=-1.2355952478371572 1.540970558005526 -2.3388147017213989 0.38220583789540474 3.0868026671870581 -1.4796040587446673 1.816898357083317 1.0430598460155431 -1.4179723907446269 -0.50328808594351238 -0.72522599332558191 -0.055566950258388571 -1.1556242148560032 1.7970384334918938 -0.40550213678109565 -2.9508400299503355 0.338722684446921 -0.75538430553942293 -0.0065393045896297922 6.880426317626009 -0.37592283446632618 -0.016724773270983977 0.1827802507348617 0.36061261166770148 3.4766899135170122 -0.010742060999688611 1.7989303227431803 -0.28558911716123603 -2.6563835362547414 -0.17678755804055007
decision_type=2 2 2 2 2 2 2 2 2 2 2 2 2 2 2 2 2 2 2 2 2 2 2 2 2 2 2 2 2 2
left_child=1 13 22 6 5 -5 7 9 -9 -2 -11 -12 27 28 -15 -16 -8 18 -18 -7 21 -13 24 -24 -3 -26 -14 -4 -1 -30
right_child=3 2 12 4 -6 19 16 8 -10 10 11 20 26 14 15 -17 17 -19 -20 -21 -22 -23 23 -25 25 -27 -28 -29 29 -31
leaf_value=-0.014519164606545327 -0.0092235203402047522 -0.0070506528150384093 0.075654814365373399 0.0033448633409108976 0.0015489277482333816 0.020528679094695534 0.0024266556247299117 -0.0051335991198522037 0.025372498594758087 -0.0097354864778074184 0.024548537447580846 -0.0065097344448776856 0.02771374219410095 -0.0039081313611785537 -0.012659732518564882 0.022028046320907053 0.0163317275657071 -0.0023649765864414756 0.0037597527957153546 0.071884983521725787 0.037616018258289051 0.013762501103215316 0.033089735433437455 0.0018740064657956222 0.042268208480553938 0.0011902837021147835 0.0012814598329784796 -0.00105441241087966 -0.011034326853526948 -0.0052180104624527162
leaf_weight=1286.9665341041982 3105.5458671767265 1965.8367232605815 10.084881056100128 1277.8882107138634 4330.3206450641155 1537.7056490872055 10561.113443285227 1293.724837532267 669.22787918336689 1101.6573680248111 354.20701998844743 509.62042192183435 426.37018126808107 1652.4584113173187 111.7154872380197 298.69438410364091 1574.1439160965383 858.77334660664201 704.3751243725419 27.192850541323423 53.940436709672213 248.04161519184709 91.715752488002181 308.52150432392955 51.632887812331319 452.44214344024658 109.73662597499788 409.99490364082158 3117.6145945359021 5917.9703942295164
leaf_count=46543 99508 61056 145 32912 108980 22898 263368 40503 16452 34654 10004 16649 7225 54809 3638 7942 38399 21248 17696 120 1130 6703 2551 10014 1131 12593 2282 11516 111935 198905
internal_value=0 -0.0992128 0.0253402 0.0555455 0.124211 0.266199 0.0321268 -0.0495467 0.105413 -0.106163 0.00110353 0.186146 0.257961 -0.137692 -0.0125031 0.251639 0.075866 0.167855 0.248939 0.428875 0.0528908 0.00263283 -0.0521886 0.181191 -0.0900357 0.108713 0.44619 0.017498 -0.162707 -0.144507
internal_weight=0 16211.8 3826.34 28207.5 7173.11 2842.79 21034.4 7335.97 1962.95 5373.01 2267.47 1165.81 956.187 12385.4 2062.87 410.41 13698.4 3137.29 2278.52 1564.9 811.602 757.662 2870.15 400.237 2469.91 504.075 536.107 420.08 10322.6 9035.58
internal_count=1263509 532285 108513 731224 164910 55930 566314 225603 56955 168648 69140 34486 21168 423772 66389 11580 340711 77343 56095 23018 24482 23352 87345 12565 74780 13724 9507 11661 357383 310840
shrinkage=0.05


Tree=26
num_leaves=31
num_cat=0
split_feature=0 2 0 3 3 2 0 7 0 2 3 5 2 4 0 0 3 2 3 0 7 2 3 7 5 0 3 0 2 2
split_gain=225.158 69.6595 66.4413 48.0613 42.6928 34.5494 43.9947 31.403 27.5234 32.473 77.6846 25.8935 32.9693 52.9585 55.7002 43.6431 105.034 61.7504 35.4603 46.5719 38.1407 32.0963 40.0068 29.4375 28.9496 28.2421 25.258 29.4977 30.5065 22.2306
threshold=-1.0067906060624037 1.2742498454928153 -2.3388147017213989 -1.1556242148560032 1.6962072558515799 -0.13630241637859572 -2.9508400299503355 1.2647351622979019 -2.2451727738334806 -0.17678755804055007 0.35390001127391685 1.4443237980818429 -1.3531517895678173 -0.0053025497782428904 1.816898357083317 3.7156692960098678 1.8236170527221316 1.0081050800240361 0.52445267502970638 -0.48217764806543223 -0.49700905211268981 -0.39250852703801009 -0.92208536599961055 0.30927062469074101 -0.2073317865132098 1.7602300341925414 -0.95642467975469869 -1.4283504589048046 0.2574213210064849 3.3510998978284019
decision_type=2 2 2 2 2 2 2 2 2 2 2 2 2 2 2 2 2 2 2 2 2 2 2 2 2 2 2 2 2 2
left_child=1 4 29 -4 8 -6 -7 11 -1 -10 26 12 13 14 -2 16 17 18 19 21 -20 -14 -23 -13 -24 -15 -11 -28 -29 -3
right_child=7 2 3 -5 5 6 -8 -9 9 10 -12 23 15 25 -16 -17 -18 -19 20 -21 -22 22 24 -25 -26 -27 27 28 -30 -31
leaf_value=-0.012174139735641578 -0.0029843809345629635 -0.0051249508605311824 -0.00033801490292365119 0.017213561448754185 -0.0025924117658378694 -0.013314514278764939 0.025957518849560809 0.019000097892829582 -0.0096853518526966963 -0.011829499614266159 0.010136123459161754 -0.0028780261599927262 -0.012349490623382101 -0.013179022150699432 0.012009473607217888 -0.00023216096925379466 0.030462273442515449 0.017091564960659215 0.048786224183808277 0.0048277238635965926 0.010194500879938912 -0.006137227532964174 0.02486142949022186 0.012046000396346769 0.00060674458401855313 -0.0015608116310270603 -0.0070322254963468174 -0.0030550454204302116 0.016949934576478115 0.0053685630243680612
leaf_weight=2417.753895746544 1056.3791893348098 2687.9038894698024 708.90535976178944 866.56266365945339 2304.1934737190604 100.67236879840493 241.91320133581758 301.29930984601378 3675.573947776109 1392.4371725171804 863.90561564452946 3059.4470284637064 701.08034400455654 634.24327594228089 1496.3010968659073 3617.0534978210926 423.68242938444018 991.18686849996448 67.860642096027732 7907.6565636154264 1022.1048821955919 768.90975499711931 233.37025918625295 369.92520131729543 259.61970882862806 2974.1109018009156 1828.5758227463812 510.63359651714563 303.42376430332661 620.9429958537221
leaf_count=88870 32507 85277 20477 16136 75638 3337 5927 3943 131472 46976 27586 81209 22832 20426 36502 91192 6289 17133 1382 194276 25603 22119 6218 9513 7514 77130 63517 16859 8961 16688
internal_value=0 -0.0850991 0.0173753 0.186367 -0.121796 -0.00777651 0.288289 0.0593082 -0.149248 -0.122664 -0.0693484 0.0555239 0.0680409 0.00588672 0.116104 0.0919845 0.120226 0.102865 0.0812407 0.062332 0.252369 -0.0755193 0.0198057 -0.0253331 0.242038 -0.0720899 -0.127617 -0.0701631 0.0881448 -0.0631042
internal_weight=0 18523.4 4884.31 1575.47 13639.1 2646.78 342.586 25884.2 10992.3 8574.55 4898.98 25582.9 22153.6 6161.03 2552.68 15992.5 12375.5 11951.8 10960.6 9870.64 1089.97 1962.98 1261.9 3429.37 492.99 3608.35 4035.07 2642.63 814.057 3308.85
internal_count=1263509 607721 138578 36613 469143 84902 9264 655788 384241 295371 163899 651845 561123 166565 69009 394558 303366 297077 279944 252959 26985 58683 35851 90722 13732 97556 136313 89337 25820 101965
shrinkage=0.05


Tree=27
num_leaves=31
num_cat=0
split_feature=0 2 0 3 7 5 0 2 3 0 3 0 2 0 3 3 0 4 7 0 2 2 3 2 3 2 3 5 3 6
split_gain=205.185 66.6531 57.0877 60.8984 56.6263 54.0341 37.7996 57.1992 60.2303 56.8028 49.4302 35.6415 43.8815 32.6152 30.5311 28.4848 25.43 25.0638 28.7328 65.5558 23.6673 22.4533 22.3199 71.996 34.6145 55.3643 35.6078 31.0136 27.8485 22.2289
threshold=-1.265887444187306 1.540970558005526 -2.9508400299503355 -1.1754768676812439 1.2647351622979019 1.213046776487831 -0.48217764806543223 0.70267479694726098 2.0338856537284205 0.97634891222315934 -1.7574088433685195 1.7602300341925414 0.2002098515180579 1.0000000180025095e-35 2.4390544935472298 1.4250594758919204 -2.6563835362547414 -0.031322919697672751 -1.3499261049834295 4.3918816577002797 4.0058022655376835 -1.4501707142489004 -0.92208536599961055 -0.28562033203772313 0.47956861306806803 -1.4014972852647787 1.0430598460155431 -0.040452518963038427 -0.20325766501635797 -0.11819233562764915
decision_type=2 2 2 2 2 2 2 2 2 2 2 2 2 2 2 2 2 2 2 2 2 2 2 2 2 2 2 2 2 2
left_child=1 14 -3 -4 6 -5 7 8 22 13 -9 12 -11 -8 16 -6 -1 18 19 -13 -7 -10 -2 24 -24 -26 -27 -25 -29 -21
right_child=4 2 3 5 15 20 9 10 21 11 -12 17 -14 -15 -16 -17 -18 -19 -20 29 -22 -23 23 27 25 26 -28 28 -30 -31
leaf_value=-0.013011926356731887 -0.010845115477578682 -0.0057448804588159244 -0.0032656763661536824 0.022701483545705479 0.030847451175588021 -0.00088981457077219194 0.0082023826256597578 -0.0025749401039754545 0.0063495895387712074 -0.0098111788256317559 0.020431465844223239 0.11469913240835038 0.03073035901133056 0.02491230418746411 0.0063324923459844975 0.0040821647995480589 -0.0060523877288648411 0.0034675057843312792 -0.0061856011773706943 0.049952649551289155 0.052114278342883506 0.034860649227441788 -0.012470144783673481 0.018689313305497782 -0.0087861358505048181 -0.00094032434551050582 0.020454846199658407 -0.0059608370252092818 0.015465742791230117 -0.010282462890940029
leaf_weight=1511.6585735157132 1004.0275154653937 1688.8204140514135 905.77356704883277 714.39640136994421 260.7154149170965 488.35561303608119 1129.7309772949666 416.92605096288025 147.24795169383287 901.88161643408239 529.80817962624133 15.460563492029904 71.593026004731655 393.76463766023517 447.87002389132977 160.74958010390401 9973.423329481855 17810.189217519015 1128.6347053702921 19.602235171943903 21.509151548147202 129.99907604977489 1339.5590766482055 443.5462650898844 1220.8126542251557 456.87947029992938 338.0378154348582 428.67778782732785 234.01807345077395 63.87591316178441
leaf_count=55524 31540 53553 25608 15282 4157 13706 24773 11622 4079 28814 9879 77 427 4868 13751 1748 344447 439577 32197 384 186 2516 45215 12295 40101 15370 10077 13792 6062 1882
internal_value=0 -0.0925911 0.0223947 0.13125 0.0494949 0.276645 0.0440578 -0.0216014 -0.05915 0.0644542 0.206076 0.0502797 -0.136307 0.25056 -0.129389 0.413118 -0.139378 0.0598239 -0.0783585 0.437029 0.0279016 0.395138 -0.0822284 -0.0519003 -0.124839 -0.0420187 0.163302 0.169283 0.0322299 0.0815014
internal_weight=0 15751.8 3818.86 2130.03 28645.7 1224.26 28224.3 6689.54 5742.81 21534.7 946.734 20011.2 973.475 1523.5 11933 421.465 11485.1 19037.8 1227.57 98.9387 509.865 277.247 5465.56 4461.53 3355.29 2015.73 794.917 1106.24 662.696 83.4781
internal_count=1263509 522057 108335 54782 741452 29174 735547 202548 181047 532999 21501 503358 29241 29641 413722 5905 399971 474117 34540 2343 13892 6595 174452 142912 110763 65548 25447 32149 19854 2266
shrinkage=0.05


Tree=28
num_leaves=31
num_cat=0
split_feature=0 2 7 3 0 2 0 0 2 3 0 3 3 0 2 7 0 3 5 3 0 2 0 0 3 5 0 3 2 5
split_gain=185.598 62.363 50.1409 42.1427 67.936 35.3306 47.6594 34.0374 51.3482 53.7248 50.4721 43.7058 32.8389 32.2374 39.3971 29.8011 28.4331 27.1172 25.5527 24.652 21.7451 38.6622 28.8093 21.3085 48.7646 51.5899 20.8027 26.5677 22.5202 20.7884
threshold=-1.265887444187306 1.0319610897521636 1.2647351622979019 -1.5443922977296392 -2.4206142956159886 2.7107842349606552 -2.9508400299503355 -0.48217764806543223 0.70267479694726098 2.0338856537284205 0.97634891222315934 -1.8904109283353567 1.6232982584142857 1.7602300341925414 0.2002098515180579 1.6300685205497731 1.0000000180025095e-35 1.3316733412292459 0.29189325386020593 1.4250594758919204 -2.7716286818322797 -0.6992649891086592 -1.7702829951513794 3.7156692960098678 0.88526562043807633 -2.286443107690308 -1.7051471630086201 -0.14359408645800179 2.1893545958542258 -1.1242104431211255
decision_type=2 2 2 2 2 2 2 2 2 2 2 2 2 2 2 2 2 2 2 2 2 2 2 2 2 2 2 2 2 2
left_child=1 12 7 -3 5 17 -7 8 9 -2 16 -10 -1 14 -12 20 -9 18 -5 -4 -14 -22 -23 24 -15 -26 27 28 -6 -30
right_child=2 3 19 4 26 6 -8 10 11 -11 13 -13 15 23 -16 -17 -18 -19 -20 -21 21 22 -24 -25 25 -27 -28 -29 29 -31
